{"learner":{"attributes":{"scikit_learn":"{\"_estimator_type\": \"classifier\"}"},"feature_names":["age","num_subscription_pauses","weekly_hours","average_session_length","song_skip_rate","weekly_songs_played","weekly_unique_songs","num_favorite_artists","num_platform_friends","num_playlists_created","num_shared_playlists","notifications_clicked","account_months","engagement_score","subscription_type_Free","subscription_type_Premium","subscription_type_Student","payment_plan_Yearly","payment_method_Credit Card","payment_method_Debit Card","payment_method_Paypal","customer_service_inquiries_Low","customer_service_inquiries_Medium"],"feature_types":["int","int","float","float","float","int","int","int","int","int","int","int","float","float","i","i","i","i","i","i","i","i","i"],"gradient_booster":{"model":{"gbtree_model_param":{"num_parallel_tree":"1","num_trees":"100"},"iteration_indptr":[0,1,2,3,4,5,6,7,8,9,10,11,12,13,14,15,16,17,18,19,20,21,22,23,24,25,26,27,28,29,30,31,32,33,34,35,36,37,38,39,40,41,42,43,44,45,46,47,48,49,50,51,52,53,54,55,56,57,58,59,60,61,62,63,64,65,66,67,68,69,70,71,72,73,74,75,76,77,78,79,80,81,82,83,84,85,86,87,88,89,90,91,92,93,94,95,96,97,98,99,100],"tree_info":[0,0,0,0,0,0,0,0,0,0,0,0,0,0,0,0,0,0,0,0,0,0,0,0,0,0,0,0,0,0,0,0,0,0,0,0,0,0,0,0,0,0,0,0,0,0,0,0,0,0,0,0,0,0,0,0,0,0,0,0,0,0,0,0,0,0,0,0,0,0,0,0,0,0,0,0,0,0,0,0,0,0,0,0,0,0,0,0,0,0,0,0,0,0,0,0,0,0,0,0],"trees":[{"base_weights":[-1.8551992E-8,-3.7437886E-1,1.1172895E0,9.5748615E-1,-7.046465E-1,1.5406071E0,2.7706575E-1,1.4154108E0,5.203567E-2,-2.431869E-1,-1.6215695E0,1.7071972E0,8.550972E-1,1.6709136E0,-6.959711E-2,1.7364202E0,1.1058792E0,-4.4703963E-1,8.4384876E-1,3.3751804E-1,-8.2375586E-1,-1.8429189E0,-1.183447E0,1.8936235E-1,1.5155007E0,1.4178153E0,2.844054E-1,1.8749575E-1,1.4681098E0,-5.8871776E-1,7.4751484E-1,1.8913607E-1,1.57176E0,1.5251384E0,6.898304E-1,2.0415317E-1,-1.0778966E0,1.4255817E0,2.5501326E-1,-1.3325046E-1,1.0434722E0,-1.2756394E0,-1.4735372E-1,-1.9725033E0,-1.5417147E0,-1.5330961E0,-3.8674378E-1,1.2929276E0,1.861369E0,1.1227205E0,1.830413E-1,-3.1335676E-1,1.1572411E0,1.2128605E0,1.8528701E-1,-1.0404763E0,4.8914364E-1,1.0897512E0,-2.9270387E-1,1.3818088E-1,1.8441373E-1,1.3032207E-1,1.8423937E-1,3.2579083E-2,1.4926557E-1,-2.4024345E-2,1.16438106E-1,-1.4697887E-1,-2.9336074E-2,1.2231326E-1,1.8234009E-1,-1.909533E-2,1.05763555E-1,-5.5962123E-2,8.14052E-2,1.3494977E-1,9.873844E-3,-1.6128257E-1,-6.157239E-2,-5.5365104E-2,8.021035E-2,-2.0450461E-1,-1.8595003E-1,-1.8854992E-1,-1.0408415E-1,-1.8519638E-1,-1.0250389E-1,-9.599467E-2,4.766644E-2,1.0558676E-1,1.8340115E-1,1.8655927E-1,7.830012E-2,8.261414E-2,1.7317879E-1,-7.655554E-2,7.368056E-2,8.709415E-2,1.758221E-1,9.420635E-2,1.7241332E-1,-7.540932E-2,-1.8487915E-1,8.393122E-2,-5.5975415E-2,7.85679E-2,1.7374936E-1,-7.5923614E-2,6.967607E-2],"categories":[],"categories_nodes":[],"categories_segments":[],"categories_sizes":[],"default_left":[0,0,0,0,0,0,0,0,0,0,0,0,0,0,0,0,0,0,0,0,0,0,0,0,0,0,0,0,0,0,0,0,0,0,0,0,0,0,0,0,0,0,0,0,0,0,0,0,0,0,0,0,0,0,0,0,0,0,0,0,0,0,0,0,0,0,0,0,0,0,0,0,0,0,0,0,0,0,0,0,0,0,0,0,0,0,0,0,0,0,0,0,0,0,0,0,0,0,0,0,0,0,0,0,0,0,0,0,0],"id":0,"left_children":[1,3,5,7,9,11,13,15,17,19,21,23,25,27,29,31,33,35,37,39,41,43,45,-1,47,49,51,-1,53,55,57,-1,59,61,63,65,67,69,71,73,75,77,79,81,83,85,87,89,91,93,-1,95,97,99,-1,101,103,105,107,-1,-1,-1,-1,-1,-1,-1,-1,-1,-1,-1,-1,-1,-1,-1,-1,-1,-1,-1,-1,-1,-1,-1,-1,-1,-1,-1,-1,-1,-1,-1,-1,-1,-1,-1,-1,-1,-1,-1,-1,-1,-1,-1,-1,-1,-1,-1,-1,-1,-1],"loss_changes":[1.0450575E4,8.23225E3,2.229875E3,1.5418579E3,6.344647E3,4.7469336E2,1.01578906E3,2.4347852E2,4.9438608E2,3.3637786E3,4.8466406E2,1.1696973E2,2.6201978E2,1.4573486E1,7.1488245E2,2.7913574E1,2.1874927E2,3.154958E2,1.653096E2,1.6579955E3,1.5247771E3,1.2706445E2,4.695686E2,0E0,1.25251465E2,4.8011475E1,2.1269255E2,0E0,1.8828247E1,5.0229892E2,2.3342139E2,0E0,2.8123535E1,4.1728638E1,1.8489304E2,1.6178511E2,1.19466675E2,1.734668E1,8.66728E1,1.2095776E3,5.768833E2,6.6451514E2,7.71704E2,1.52734375E1,1.7148291E2,1.8807593E2,2.5589465E2,1.2790723E2,1.4863281E0,4.234247E1,0E0,1.1564072E2,2.6967377E1,1.6638306E1,0E0,1.6677704E2,1.1250525E2,9.5716064E1,7.571897E1,0E0,0E0,0E0,0E0,0E0,0E0,0E0,0E0,0E0,0E0,0E0,0E0,0E0,0E0,0E0,0E0,0E0,0E0,0E0,0E0,0E0,0E0,0E0,0E0,0E0,0E0,0E0,0E0,0E0,0E0,0E0,0E0,0E0,0E0,0E0,0E0,0E0,0E0,0E0,0E0,0E0,0E0,0E0,0E0,0E0,0E0,0E0,0E0,0E0,0E0],"parents":[2147483647,0,0,1,1,2,2,3,3,4,4,5,5,6,6,7,7,8,8,9,9,10,10,11,11,12,12,13,13,14,14,15,15,16,16,17,17,18,18,19,19,20,20,21,21,22,22,24,24,25,25,26,26,28,28,29,29,30,30,32,32,33,33,34,34,35,35,36,36,37,37,38,38,39,39,40,40,41,41,42,42,43,43,44,44,45,45,46,46,47,47,48,48,49,49,51,51,52,52,53,53,55,55,56,56,57,57,58,58],"right_children":[2,4,6,8,10,12,14,16,18,20,22,24,26,28,30,32,34,36,38,40,42,44,46,-1,48,50,52,-1,54,56,58,-1,60,62,64,66,68,70,72,74,76,78,80,82,84,86,88,90,92,94,-1,96,98,100,-1,102,104,106,108,-1,-1,-1,-1,-1,-1,-1,-1,-1,-1,-1,-1,-1,-1,-1,-1,-1,-1,-1,-1,-1,-1,-1,-1,-1,-1,-1,-1,-1,-1,-1,-1,-1,-1,-1,-1,-1,-1,-1,-1,-1,-1,-1,-1,-1,-1,-1,-1,-1,-1],"split_conditions":[1E0,9.97551E0,1E0,1E0,1E0,4.0079304E1,9.97551E0,4.93763E0,3E0,1E0,1E0,1E0,1E0,4.93763E0,3E0,1E0,1E0,4.93763E0,4.93763E0,3E0,3E0,7.0073724E-1,7.0073724E-1,1.8936235E-1,3E0,3E0,3E0,1.8749575E-1,3E0,7.0073724E-1,3.9897717E1,1.8913607E-1,3E0,3E0,6.972468E-1,1E0,1E0,1E0,1E0,6.972468E-1,4.0079304E1,1E0,7.0073724E-1,3E0,3E0,3E0,3E0,7.0073724E-1,3.9897717E1,6.9295883E-1,1.830413E-1,7.0073724E-1,6.850694E-1,6.5806824E-1,1.8528701E-1,4.0079304E1,4.0079304E1,6.9295883E-1,6.972468E-1,1.3818088E-1,1.8441373E-1,1.3032207E-1,1.8423937E-1,3.2579083E-2,1.4926557E-1,-2.4024345E-2,1.16438106E-1,-1.4697887E-1,-2.9336074E-2,1.2231326E-1,1.8234009E-1,-1.909533E-2,1.05763555E-1,-5.5962123E-2,8.14052E-2,1.3494977E-1,9.873844E-3,-1.6128257E-1,-6.157239E-2,-5.5365104E-2,8.021035E-2,-2.0450461E-1,-1.8595003E-1,-1.8854992E-1,-1.0408415E-1,-1.8519638E-1,-1.0250389E-1,-9.599467E-2,4.766644E-2,1.0558676E-1,1.8340115E-1,1.8655927E-1,7.830012E-2,8.261414E-2,1.7317879E-1,-7.655554E-2,7.368056E-2,8.709415E-2,1.758221E-1,9.420635E-2,1.7241332E-1,-7.540932E-2,-1.8487915E-1,8.393122E-2,-5.5975415E-2,7.85679E-2,1.7374936E-1,-7.5923614E-2,6.967607E-2],"split_indices":[14,2,21,21,21,2,2,2,1,22,16,22,22,2,1,22,22,2,2,1,1,4,4,0,1,1,1,0,1,4,2,0,1,1,4,16,16,16,16,4,2,16,4,1,1,1,1,4,2,4,0,4,4,4,0,2,2,4,4,0,0,0,0,0,0,0,0,0,0,0,0,0,0,0,0,0,0,0,0,0,0,0,0,0,0,0,0,0,0,0,0,0,0,0,0,0,0,0,0,0,0,0,0,0,0,0,0,0,0],"split_type":[0,0,0,0,0,0,0,0,0,0,0,0,0,0,0,0,0,0,0,0,0,0,0,0,0,0,0,0,0,0,0,0,0,0,0,0,0,0,0,0,0,0,0,0,0,0,0,0,0,0,0,0,0,0,0,0,0,0,0,0,0,0,0,0,0,0,0,0,0,0,0,0,0,0,0,0,0,0,0,0,0,0,0,0,0,0,0,0,0,0,0,0,0,0,0,0,0,0,0,0,0,0,0,0,0,0,0,0,0],"sum_hessian":[2.498207E4,1.871257E4,6.2695005E3,3.7178318E3,1.4994738E4,4.1685083E3,2.1009922E3,2.4687283E3,1.2491035E3,9.975591E3,5.019148E3,3.352344E3,8.1616425E2,4.1770023E2,1.683292E3,1.2096318E3,1.2590964E3,7.6644995E2,4.8265363E2,4.9874204E3,4.98817E3,3.3323584E3,1.6867894E3,1.6950336E3,1.6573105E3,4.102056E2,4.0595865E2,2.0410352E2,2.1359671E2,1.0295111E3,6.537808E2,6.1780664E2,5.9182526E2,6.258009E2,6.332955E2,3.774791E2,3.8897086E2,2.4207626E2,2.4057735E2,2.9926023E3,1.9948184E3,2.9898542E3,1.9983158E3,2.3260806E3,1.00627783E3,1.1716592E3,5.151303E2,1.01127423E3,6.460364E2,2.4132681E2,1.688788E2,2.4132681E2,1.6463185E2,1.3090605E2,8.269066E1,7.254794E2,3.040318E2,4.9189697E2,1.6188382E2,3.522472E2,2.3957806E2,3.7123358E2,2.545673E2,4.3668658E2,1.966089E2,2.5856442E2,1.1891466E2,2.5881427E2,1.3015659E2,1.6313292E2,7.8943344E1,1.5513866E2,8.543868E1,2.0640188E3,9.2858356E2,1.5064188E3,4.8839948E2,1.9778306E3,1.0120237E3,1.3997455E3,5.9857043E2,1.4062407E3,9.1983984E2,5.9507294E2,4.112049E2,7.1823456E2,4.534246E2,3.0952786E2,2.0560245E2,7.0524384E2,3.0603036E2,6.427887E2,3.2476692E0,1.6388239E2,7.744442E1,1.688788E2,7.2448006E1,1.1316878E2,5.1463066E1,8.743725E1,4.3468803E1,5.371145E2,1.883648E2,2.280863E2,7.5945496E1,3.3625867E2,1.556383E2,1.1017093E2,5.1712887E1],"tree_param":{"num_deleted":"0","num_feature":"23","num_nodes":"109","size_leaf_vector":"1"}},{"base_weights":[3.4477573E-4,-3.379076E-1,1.0153327E0,8.688423E-1,-6.3567686E-1,1.4029132E0,2.510429E-1,1.2870724E0,4.7372032E-2,-2.1919471E-1,-1.4641724E0,1.5562525E0,7.7563214E-1,1.5237585E0,-6.266016E-2,1.583327E0,1.0029485E0,-4.0288073E-1,7.646785E-1,3.0485478E-1,-7.421109E-1,-1.6652089E0,-1.067093E0,1.7294426E0,1.3788569E0,1.2896059E0,2.575857E-1,1.7127033E-1,1.3367503E0,-5.306528E-1,6.767227E-1,1.727498E-1,1.4306657E0,6.7792827E-1,1.4851867E0,-8.0048275E-1,4.9145252E-1,1.2964008E0,2.3035567E-1,6.124135E-1,-6.0162747E-1,-1.0716138E0,3.5528395E-2,-1.7834626E0,-1.3909606E0,-1.3830441E0,-3.483172E-1,1.6933391E0,1.7816375E-1,1.1736394E0,1.6995814E0,1.0184722E0,1.671261E-1,-2.8213784E-1,1.0505309E0,1.101782E0,1.6932234E-1,-9.372311E-1,4.4167638E-1,9.878621E-1,-2.635662E-1,1.264691E-1,1.7335872E-1,3.0817477E-2,1.3836555E-1,1.3287605E-1,1.7736962E-1,-2.3472777E-2,-1.331883E-1,1.0820418E-1,-1.2033337E-2,1.11048914E-1,1.7271842E-1,-1.7314233E-2,1.0839862E-1,2.5892293E-2,1.3484006E-1,-9.912233E-2,2.9780725E-2,-1.4539932E-1,-4.979418E-2,-3.7575588E-2,8.3009444E-2,-1.8500085E-1,-1.679956E-1,-1.7038564E-1,-9.3688436E-2,-1.6731161E-1,-9.226002E-2,-8.639812E-2,4.3005627E-2,1.6503172E-1,1.7759441E-1,9.560164E-2,1.674193E-1,1.703404E-1,7.252355E-2,7.239763E-2,1.6302252E-1,-6.8900876E-2,6.664168E-2,8.04658E-2,1.6501117E-1,8.669159E-2,1.6051625E-1,-6.783786E-2,-1.670913E-1,5.43818E-3,1.321671E-1,7.2365426E-2,1.6158797E-1,-6.835536E-2,6.3039824E-2],"categories":[],"categories_nodes":[],"categories_segments":[],"categories_sizes":[],"default_left":[0,0,0,0,0,0,0,0,0,0,0,0,0,0,0,0,0,0,0,0,0,0,0,0,0,0,0,0,0,0,0,0,0,0,0,0,0,0,0,0,0,0,0,0,0,0,0,0,0,0,0,0,0,0,0,0,0,0,0,0,0,0,0,0,0,0,0,0,0,0,0,0,0,0,0,0,0,0,0,0,0,0,0,0,0,0,0,0,0,0,0,0,0,0,0,0,0,0,0,0,0,0,0,0,0,0,0,0,0,0,0,0,0],"id":1,"left_children":[1,3,5,7,9,11,13,15,17,19,21,23,25,27,29,31,33,35,37,39,41,43,45,47,49,51,53,-1,55,57,59,-1,61,63,65,67,69,71,73,75,77,79,81,83,85,87,89,91,-1,93,95,97,-1,99,101,103,-1,105,107,109,111,-1,-1,-1,-1,-1,-1,-1,-1,-1,-1,-1,-1,-1,-1,-1,-1,-1,-1,-1,-1,-1,-1,-1,-1,-1,-1,-1,-1,-1,-1,-1,-1,-1,-1,-1,-1,-1,-1,-1,-1,-1,-1,-1,-1,-1,-1,-1,-1,-1,-1,-1,-1],"loss_changes":[8.537707E3,6.702831E3,1.8409512E3,1.2683628E3,5.1620405E3,3.954839E2,8.356342E2,2.0433179E2,4.029127E2,2.7288647E3,3.9773828E2,9.940234E1,2.159036E2,1.23341675E1,5.816411E2,2.3849854E1,1.9514795E2,2.729538E2,1.3637836E2,1.3870941E3,1.2771953E3,1.0521484E2,3.821692E2,1.352539E-1,1.06052E2,4.0456482E1,1.7392644E2,0E0,1.5937927E1,4.0732513E2,1.9088739E2,0E0,2.7303589E1,1.9513931E2,2.0345459E1,1.5932477E2,8.558702E1,1.7375427E1,8.32536E1,9.660022E2,4.42024E2,7.672451E2,4.8539716E2,1.2849609E1,1.4119739E2,1.5474023E2,2.0741673E2,6.5405273E-1,0E0,1.07798706E2,1.1420898E0,4.2193756E1,0E0,9.392787E1,2.2925873E1,1.4093063E1,0E0,1.3676898E2,1.0359598E2,8.010019E1,6.15511E1,0E0,0E0,0E0,0E0,0E0,0E0,0E0,0E0,0E0,0E0,0E0,0E0,0E0,0E0,0E0,0E0,0E0,0E0,0E0,0E0,0E0,0E0,0E0,0E0,0E0,0E0,0E0,0E0,0E0,0E0,0E0,0E0,0E0,0E0,0E0,0E0,0E0,0E0,0E0,0E0,0E0,0E0,0E0,0E0,0E0,0E0,0E0,0E0,0E0,0E0,0E0,0E0],"parents":[2147483647,0,0,1,1,2,2,3,3,4,4,5,5,6,6,7,7,8,8,9,9,10,10,11,11,12,12,13,13,14,14,15,15,16,16,17,17,18,18,19,19,20,20,21,21,22,22,23,23,24,24,25,25,26,26,28,28,29,29,30,30,32,32,33,33,34,34,35,35,36,36,37,37,38,38,39,39,40,40,41,41,42,42,43,43,44,44,45,45,46,46,47,47,49,49,50,50,51,51,53,53,54,54,55,55,57,57,58,58,59,59,60,60],"right_children":[2,4,6,8,10,12,14,16,18,20,22,24,26,28,30,32,34,36,38,40,42,44,46,48,50,52,54,-1,56,58,60,-1,62,64,66,68,70,72,74,76,78,80,82,84,86,88,90,92,-1,94,96,98,-1,100,102,104,-1,106,108,110,112,-1,-1,-1,-1,-1,-1,-1,-1,-1,-1,-1,-1,-1,-1,-1,-1,-1,-1,-1,-1,-1,-1,-1,-1,-1,-1,-1,-1,-1,-1,-1,-1,-1,-1,-1,-1,-1,-1,-1,-1,-1,-1,-1,-1,-1,-1,-1,-1,-1,-1,-1,-1],"split_conditions":[1E0,9.97551E0,1E0,1E0,1E0,4.0079304E1,9.97551E0,4.93763E0,3E0,1E0,1E0,1E0,1E0,4.93763E0,3E0,1E0,3E0,7.0073724E-1,4.93763E0,3.9897717E1,7.0073724E-1,7.0073724E-1,7.0073724E-1,3E0,3E0,3E0,3E0,1.7127033E-1,3E0,7.0073724E-1,3.9897717E1,1.727498E-1,1E0,1E0,1E0,4.93763E0,4.93763E0,7.0073724E-1,6.1E1,1E0,7.0073724E-1,3E0,1E0,3E0,3E0,3E0,3E0,6E1,1.7816375E-1,7.0073724E-1,3.9897717E1,6.1E1,1.671261E-1,7.0073724E-1,7.1625215E-1,7.0073724E-1,1.6932234E-1,4.0079304E1,6.1E1,6.1E1,6.972468E-1,1.264691E-1,1.7335872E-1,3.0817477E-2,1.3836555E-1,1.3287605E-1,1.7736962E-1,-2.3472777E-2,-1.331883E-1,1.0820418E-1,-1.2033337E-2,1.11048914E-1,1.7271842E-1,-1.7314233E-2,1.0839862E-1,2.5892293E-2,1.3484006E-1,-9.912233E-2,2.9780725E-2,-1.4539932E-1,-4.979418E-2,-3.7575588E-2,8.3009444E-2,-1.8500085E-1,-1.679956E-1,-1.7038564E-1,-9.3688436E-2,-1.6731161E-1,-9.226002E-2,-8.639812E-2,4.3005627E-2,1.6503172E-1,1.7759441E-1,9.560164E-2,1.674193E-1,1.703404E-1,7.252355E-2,7.239763E-2,1.6302252E-1,-6.8900876E-2,6.664168E-2,8.04658E-2,1.6501117E-1,8.669159E-2,1.6051625E-1,-6.783786E-2,-1.670913E-1,5.43818E-3,1.321671E-1,7.2365426E-2,1.6158797E-1,-6.835536E-2,6.3039824E-2],"split_indices":[14,2,21,21,21,2,2,2,1,22,16,22,22,2,1,22,1,4,2,2,4,4,4,1,1,1,1,0,1,4,2,0,16,16,16,2,2,4,0,16,4,1,16,1,1,1,1,0,0,4,2,0,0,4,4,4,0,2,0,0,4,0,0,0,0,0,0,0,0,0,0,0,0,0,0,0,0,0,0,0,0,0,0,0,0,0,0,0,0,0,0,0,0,0,0,0,0,0,0,0,0,0,0,0,0,0,0,0,0,0,0,0,0],"split_type":[0,0,0,0,0,0,0,0,0,0,0,0,0,0,0,0,0,0,0,0,0,0,0,0,0,0,0,0,0,0,0,0,0,0,0,0,0,0,0,0,0,0,0,0,0,0,0,0,0,0,0,0,0,0,0,0,0,0,0,0,0,0,0,0,0,0,0,0,0,0,0,0,0,0,0,0,0,0,0,0,0,0,0,0,0,0,0,0,0,0,0,0,0,0,0,0,0,0,0,0,0,0,0,0,0,0,0,0,0,0,0,0,0],"sum_hessian":[2.486592E4,1.8651E4,6.21492E3,3.690962E3,1.4960039E4,4.123174E3,2.0917458E3,2.4453892E3,1.2455729E3,9.956302E3,5.0037373E3,3.312058E3,8.1111566E2,4.128652E2,1.6788807E3,1.1949003E3,1.2504889E3,7.655045E2,4.8006833E2,4.97297E3,4.983331E3,3.3197786E3,1.6839589E3,1.671467E3,1.6405911E3,4.064107E2,4.04705E2,2.0131105E2,2.1155415E2,1.0283002E3,6.505806E2,6.092337E2,5.856665E2,7.484514E2,5.0203748E2,5.2998785E2,2.3551668E2,2.3990483E2,2.401635E2,3.7133865E3,1.2595839E3,3.499948E3,1.483383E3,2.315745E3,1.0040335E3,1.1691245E3,5.148344E2,1.0078071E3,6.6365985E2,1.00328973E3,6.3730133E2,2.3975421E2,1.6665648E2,2.4118498E2,1.6352E2,1.2997333E2,8.1580826E1,7.2512573E2,3.0317438E2,4.8879044E2,1.6179019E2,3.817019E2,2.0396461E2,4.920743E2,2.5637708E2,3.2917078E2,1.728667E2,2.5739456E2,2.725933E2,1.194432E2,1.1607348E2,1.700813E2,6.982354E1,1.6362E2,7.654349E1,2.5094587E3,1.2039277E3,8.788168E2,3.807671E2,2.099199E3,1.400749E3,9.7778687E2,5.055962E2,1.3992659E3,9.164791E2,5.927959E2,4.1123764E2,7.15646E2,4.5347852E2,3.096107E2,2.052237E2,6.764699E2,3.3133722E2,7.012993E2,3.0199042E2,6.340654E2,3.2359111E0,1.6331726E2,7.643696E1,1.6897769E2,7.220728E1,1.1762641E2,4.5893597E1,9.0479706E1,3.9493618E1,5.374359E2,1.8768982E2,2.1125896E2,9.191542E1,3.455636E2,1.4322682E2,1.1023623E2,5.155397E1],"tree_param":{"num_deleted":"0","num_feature":"23","num_nodes":"113","size_leaf_vector":"1"}},{"base_weights":[6.0305494E-4,-3.0707797E-1,9.31664E-1,7.9401475E-1,-5.772513E-1,1.2922642E0,2.2889808E-1,1.180774E0,4.330366E-2,-1.9821192E-1,-1.33958E0,1.4367468E0,7.081571E-1,1.4064233E0,-5.6646384E-2,1.462086E0,9.1434795E-1,-3.6413142E-1,6.960459E-1,-6.0268843E-1,4.0785635E-1,-1.5279869E0,-9.7061586E-1,1.6035453E0,1.2673537E0,1.1833194E0,2.3431279E-1,1.5876005E0,1.2287993E0,-4.804206E-1,6.1521536E-1,1.6016203E-1,1.3155681E0,1.3070868E0,5.289495E-1,-7.2364813E-1,4.4453377E-1,1.188735E0,2.0822135E-1,-9.5056915E-1,9.40676E-2,9.2027146E-1,-9.8661594E-2,-1.6404512E0,-1.269222E0,-1.2616718E0,-3.1465435E-1,1.5688882E0,1.6537592E-1,1.0732696E0,1.5745043E0,9.286259E-1,1.5473747E-1,-2.5467756E-1,9.595025E-1,5.7018276E-2,1.5921707E0,1.0073843E0,1.5695198E-1,-8.4927905E-1,3.9958867E-1,9.116695E-1,-2.0751026E-1,1.1347931E-1,1.5774769E-1,1.1404975E-1,1.6851775E-1,1.1917604E-2,1.152221E-1,-1.0904218E-1,4.6916674E-3,9.818934E-2,-1.0844441E-2,9.974085E-2,1.5699375E-1,-1.8235767E-2,1.04290366E-1,-1.2665555E-1,-2.2323977E-2,6.891404E-2,-4.796117E-2,1.1735503E-1,1.5003236E-2,-5.239713E-2,7.578956E-2,-1.7046553E-1,-1.5410621E-1,-1.5640154E-1,-8.474449E-2,-1.5345673E-1,-8.343514E-2,2.0335054E-3,-1.29555E-1,1.5275693E-1,1.6484691E-1,1.6233103E-1,8.8277526E-2,1.5781069E-1,6.731069E-2,6.536976E-2,1.5017019E-1,-6.217888E-2,6.0402036E-2,7.065349E-2,1.5393443E-1,5.7018276E-2,1.5968086E-1,7.740074E-2,1.4582475E-1,-1.11952744E-1,-1.9330433E-2,7.1763925E-2,-5.450457E-2,6.341334E-2,1.5105014E-1,-5.910672E-2,6.1368007E-2],"categories":[],"categories_nodes":[],"categories_segments":[],"categories_sizes":[],"default_left":[0,0,0,0,0,0,0,0,0,0,0,0,0,0,0,0,0,0,0,0,0,0,0,0,0,0,0,0,0,0,0,0,0,0,0,0,0,0,0,0,0,0,0,0,0,0,0,0,0,0,0,0,0,0,0,0,0,0,0,0,0,0,0,0,0,0,0,0,0,0,0,0,0,0,0,0,0,0,0,0,0,0,0,0,0,0,0,0,0,0,0,0,0,0,0,0,0,0,0,0,0,0,0,0,0,0,0,0,0,0,0,0,0,0,0,0,0],"id":2,"left_children":[1,3,5,7,9,11,13,15,17,19,21,23,25,27,29,31,33,35,37,39,41,43,45,47,49,51,53,55,57,59,61,-1,63,65,67,69,71,73,75,77,79,81,83,85,87,89,91,93,-1,95,97,99,-1,101,103,-1,105,107,-1,109,111,113,115,-1,-1,-1,-1,-1,-1,-1,-1,-1,-1,-1,-1,-1,-1,-1,-1,-1,-1,-1,-1,-1,-1,-1,-1,-1,-1,-1,-1,-1,-1,-1,-1,-1,-1,-1,-1,-1,-1,-1,-1,-1,-1,-1,-1,-1,-1,-1,-1,-1,-1,-1,-1,-1,-1],"loss_changes":[7.043671E3,5.4981943E3,1.5473682E3,1.0572576E3,4.2878174E3,3.3958887E2,6.968376E2,1.7879053E2,3.2982755E2,2.4303193E3,3.410957E2,8.936084E1,1.8036691E2,1.1065674E1,4.7542053E2,2.1758545E1,1.8654138E2,2.2233423E2,1.14299225E2,1.4412458E3,1.0300603E3,9.2805664E1,3.181703E2,2.3486328E-1,9.426343E1,3.5684937E1,1.4313931E2,7.2631836E-3,1.41605835E1,3.3268674E2,1.577213E2,0E0,2.543512E1,3.6624268E1,1.5974612E2,1.4956036E2,7.012526E1,1.571228E1,7.8657455E1,9.1115063E2,6.7657526E2,3.8468372E2,7.2774475E2,1.1853516E1,1.2204187E2,1.3345801E2,1.6897134E2,7.092285E-1,0E0,1.0224475E2,9.547119E-1,3.6525635E1,0E0,7.649495E1,2.2747528E1,0E0,1.5533447E-2,1.247287E1,0E0,1.27739136E2,9.145042E1,7.79837E1,5.4506783E1,0E0,0E0,0E0,0E0,0E0,0E0,0E0,0E0,0E0,0E0,0E0,0E0,0E0,0E0,0E0,0E0,0E0,0E0,0E0,0E0,0E0,0E0,0E0,0E0,0E0,0E0,0E0,0E0,0E0,0E0,0E0,0E0,0E0,0E0,0E0,0E0,0E0,0E0,0E0,0E0,0E0,0E0,0E0,0E0,0E0,0E0,0E0,0E0,0E0,0E0,0E0,0E0,0E0,0E0],"parents":[2147483647,0,0,1,1,2,2,3,3,4,4,5,5,6,6,7,7,8,8,9,9,10,10,11,11,12,12,13,13,14,14,15,15,16,16,17,17,18,18,19,19,20,20,21,21,22,22,23,23,24,24,25,25,26,26,27,27,28,28,29,29,30,30,32,32,33,33,34,34,35,35,36,36,37,37,38,38,39,39,40,40,41,41,42,42,43,43,44,44,45,45,46,46,47,47,49,49,50,50,51,51,53,53,54,54,56,56,57,57,59,59,60,60,61,61,62,62],"right_children":[2,4,6,8,10,12,14,16,18,20,22,24,26,28,30,32,34,36,38,40,42,44,46,48,50,52,54,56,58,60,62,-1,64,66,68,70,72,74,76,78,80,82,84,86,88,90,92,94,-1,96,98,100,-1,102,104,-1,106,108,-1,110,112,114,116,-1,-1,-1,-1,-1,-1,-1,-1,-1,-1,-1,-1,-1,-1,-1,-1,-1,-1,-1,-1,-1,-1,-1,-1,-1,-1,-1,-1,-1,-1,-1,-1,-1,-1,-1,-1,-1,-1,-1,-1,-1,-1,-1,-1,-1,-1,-1,-1,-1,-1,-1,-1,-1,-1],"split_conditions":[1E0,9.97551E0,1E0,1E0,1E0,4.0079304E1,9.97551E0,4.93763E0,3E0,3E0,1E0,1E0,1E0,4.93763E0,3E0,1E0,1E0,7.0073724E-1,4.93763E0,1E0,1E0,7.0073724E-1,7.0073724E-1,3E0,3E0,3E0,3E0,1.4819754E0,3E0,7.0073724E-1,3.935181E1,1.6016203E-1,3E0,6.9295883E-1,3E0,1E0,4.93763E0,1E0,6.812426E-1,6.972468E-1,1E0,4.0079304E1,1E0,3E0,3E0,3E0,3.9897717E1,6E1,1.6537592E-1,9.97551E0,3.9897717E1,6.9295883E-1,1.5473747E-1,7.0073724E-1,6.1E1,5.7018276E-2,1E0,6.5806824E-1,1.5695198E-1,6.1E1,4.0079304E1,6.9295883E-1,6.972468E-1,1.1347931E-1,1.5774769E-1,1.1404975E-1,1.6851775E-1,1.1917604E-2,1.152221E-1,-1.0904218E-1,4.6916674E-3,9.818934E-2,-1.0844441E-2,9.974085E-2,1.5699375E-1,-1.8235767E-2,1.04290366E-1,-1.2665555E-1,-2.2323977E-2,6.891404E-2,-4.796117E-2,1.1735503E-1,1.5003236E-2,-5.239713E-2,7.578956E-2,-1.7046553E-1,-1.5410621E-1,-1.5640154E-1,-8.474449E-2,-1.5345673E-1,-8.343514E-2,2.0335054E-3,-1.29555E-1,1.5275693E-1,1.6484691E-1,1.6233103E-1,8.8277526E-2,1.5781069E-1,6.731069E-2,6.536976E-2,1.5017019E-1,-6.217888E-2,6.0402036E-2,7.065349E-2,1.5393443E-1,5.7018276E-2,1.5968086E-1,7.740074E-2,1.4582475E-1,-1.11952744E-1,-1.9330433E-2,7.1763925E-2,-5.450457E-2,6.341334E-2,1.5105014E-1,-5.910672E-2,6.1368007E-2],"split_indices":[14,2,21,21,21,2,2,2,1,1,16,22,22,2,1,22,22,4,2,16,22,4,4,1,1,1,1,3,1,4,2,0,1,4,1,16,2,16,4,4,22,2,16,1,1,1,2,0,0,2,2,4,0,4,0,0,9,4,0,0,2,4,4,0,0,0,0,0,0,0,0,0,0,0,0,0,0,0,0,0,0,0,0,0,0,0,0,0,0,0,0,0,0,0,0,0,0,0,0,0,0,0,0,0,0,0,0,0,0,0,0,0,0,0,0,0,0],"split_type":[0,0,0,0,0,0,0,0,0,0,0,0,0,0,0,0,0,0,0,0,0,0,0,0,0,0,0,0,0,0,0,0,0,0,0,0,0,0,0,0,0,0,0,0,0,0,0,0,0,0,0,0,0,0,0,0,0,0,0,0,0,0,0,0,0,0,0,0,0,0,0,0,0,0,0,0,0,0,0,0,0,0,0,0,0,0,0,0,0,0,0,0,0,0,0,0,0,0,0,0,0,0,0,0,0,0,0,0,0,0,0,0,0,0,0,0,0],"sum_hessian":[2.458583E4,1.847966E4,6.1061704E3,3.640568E3,1.4839092E4,4.0349407E3,2.07123E3,2.4023352E3,1.238233E3,9.911987E3,4.9271045E3,3.2336233E3,8.013174E2,4.0347183E2,1.6677582E3,1.1663401E3,1.235995E3,7.6264185E2,4.755912E2,5.944659E3,3.9673284E3,3.2595273E3,1.6675769E3,1.6250244E3,1.6085988E3,3.993546E2,4.0196277E2,1.958084E2,2.0766344E2,1.02287115E3,6.448871E2,5.9232074E2,5.7401935E2,6.1098334E2,6.250117E2,5.2800586E2,2.3463594E2,2.3590096E2,2.3969022E2,3.96475E3,1.9799093E3,1.9717775E3,1.9955509E3,2.2683281E3,9.9119916E2,1.1544249E3,5.13152E2,9.8052075E2,6.445037E2,9.8848425E2,6.2011444E2,2.3705875E2,1.6229587E2,2.4046663E2,1.6149614E2,1.4380054E0,1.9437039E2,1.2826672E2,7.9396706E1,7.207864E2,3.020848E2,4.739866E2,1.7090048E2,3.427671E2,2.3125224E2,4.269033E2,1.8408003E2,3.7780972E2,2.4720198E2,3.5745108E2,1.705548E2,1.1860511E2,1.1603082E2,1.59476E2,7.642497E1,1.6381609E2,7.587414E1,2.7634397E3,1.2013102E3,9.7173517E2,1.0081741E3,1.4834491E3,4.8832837E2,1.333708E3,6.6184296E2,1.3682827E3,9.0004553E2,5.818309E2,4.0936826E2,7.029289E2,4.514961E2,3.8324707E2,1.2990489E2,6.5870935E2,3.2181137E2,2.523417E2,7.361426E2,6.168982E2,3.2162905E0,1.616495E2,7.5409256E1,1.686438E2,7.182283E1,1.1398597E2,4.7510174E1,1.4380054E0,1.9293239E2,8.630832E1,4.195841E1,5.099787E2,2.1080763E2,2.2617413E2,7.591067E1,3.2528714E2,1.4869946E2,1.1668169E2,5.4218796E1],"tree_param":{"num_deleted":"0","num_feature":"23","num_nodes":"117","size_leaf_vector":"1"}},{"base_weights":[8.491305E-4,-2.8048474E-1,8.6076087E-1,7.297035E-1,-5.268338E-1,1.2001094E0,2.0971593E-1,1.0908145E0,3.978061E-2,-1.7968914E-1,-1.236938E0,1.3384978E0,6.495829E-1,1.3100576E0,-5.1296633E-2,1.3630756E0,8.373945E-1,5.35464E-1,-4.4164222E-1,-4.8618197E-1,5.307987E-1,-1.418056E0,-8.8740206E-1,1.5037601E0,1.1728197E0,1.0932833E0,2.1365547E-1,1.4884365E-1,1.1375277E0,-4.3598822E-1,5.6139797E-1,1.5017984E0,1.2191315E0,5.700346E-1,1.3532504E0,2.3031715E-1,1.1919973E0,-8.0973434E-1,2.6027504E-1,-8.121037E-1,1.7575406E-1,8.115832E-1,-2.9171076E-1,-1.5271026E0,-1.1650646E0,-1.1603079E0,-2.83879E-1,1.4693781E0,1.5537737E-1,9.856698E-1,1.4746476E0,8.5047746E-1,1.4477948E0,-2.303082E-1,8.790984E-1,9.2541015E-1,1.4706026E-1,-7.713029E-1,3.6195204E-1,8.240589E-1,-2.1822694E-1,1.5079282E-1,1.0178455E-1,1.0573349E-1,1.5182722E-1,2.4245294E-2,1.3115765E-1,1.5397774E-1,1.1747795E-1,-1.887462E-2,9.1489635E-2,9.9213794E-2,1.6334277E-1,-1.1731776E-1,-2.1025376E-2,-1.0475097E-2,1.0902758E-1,-1.1525114E-1,-3.1103933E-2,-2.4315504E-2,8.118507E-2,1.2597872E-1,3.6143523E-2,-7.787578E-2,4.5016985E-2,-1.5910615E-1,-1.4290763E-1,-1.4537223E-1,-7.590207E-2,-1.4232473E-1,-7.571185E-2,-7.5241335E-2,4.194806E-2,1.4298041E-1,1.5573157E-1,7.758249E-2,1.4804582E-1,1.4781484E-1,6.257462E-2,5.7430428E-2,1.4350109E-1,1.0188462E-1,1.472678E-1,-5.8219578E-2,6.2387932E-2,6.286442E-2,1.4242023E-1,6.974458E-2,1.3996202E-1,-5.31302E-2,-1.4692202E-1,1.0341995E-3,1.1721913E-1,5.622166E-2,1.4020877E-1,-5.986172E-2,6.1122704E-2],"categories":[],"categories_nodes":[],"categories_segments":[],"categories_sizes":[],"default_left":[0,0,0,0,0,0,0,0,0,0,0,0,0,0,0,0,0,0,0,0,0,0,0,0,0,0,0,0,0,0,0,0,0,0,0,0,0,0,0,0,0,0,0,0,0,0,0,0,0,0,0,0,0,0,0,0,0,0,0,0,0,0,0,0,0,0,0,0,0,0,0,0,0,0,0,0,0,0,0,0,0,0,0,0,0,0,0,0,0,0,0,0,0,0,0,0,0,0,0,0,0,0,0,0,0,0,0,0,0,0,0,0,0,0,0,0,0],"id":3,"left_children":[1,3,5,7,9,11,13,15,17,19,21,23,25,27,29,31,33,35,37,39,41,43,45,47,49,51,53,-1,55,57,59,61,63,65,67,69,71,73,75,77,79,81,83,85,87,89,91,93,-1,95,97,99,101,103,105,107,-1,109,111,113,115,-1,-1,-1,-1,-1,-1,-1,-1,-1,-1,-1,-1,-1,-1,-1,-1,-1,-1,-1,-1,-1,-1,-1,-1,-1,-1,-1,-1,-1,-1,-1,-1,-1,-1,-1,-1,-1,-1,-1,-1,-1,-1,-1,-1,-1,-1,-1,-1,-1,-1,-1,-1,-1,-1,-1,-1],"loss_changes":[5.851659E3,4.5359463E3,1.3171035E3,8.9027563E2,3.6118354E3,2.9773926E2,5.871924E2,1.6070654E2,2.9347858E2,2.1436204E3,3.0331592E2,8.396924E1,1.5242957E2,1.0370544E1,3.8992438E2,2.0718262E1,1.6714575E2,1.2111183E2,1.6141702E2,1.4837698E3,6.854256E2,8.559961E1,2.7056702E2,4.0649414E-1,8.7127686E1,3.2417114E1,1.1818912E2,0E0,1.3016785E1,2.721704E2,1.3085086E2,1.5808105E-1,2.547467E1,1.9489447E2,1.2002319E1,1.19196304E2,1.5319977E1,8.8982635E1,6.537303E1,7.856494E2,6.0500134E2,4.4584668E2,2.7344064E2,1.1583496E1,1.1120715E2,1.1895911E2,1.695282E2,1.0628662E0,0E0,9.9667786E1,8.5266113E-1,3.7020584E1,1.8041992E-1,7.260461E1,2.0952217E1,1.2755478E1,0E0,1.1912125E2,8.584053E1,7.148477E1,5.1352757E1,0E0,0E0,0E0,0E0,0E0,0E0,0E0,0E0,0E0,0E0,0E0,0E0,0E0,0E0,0E0,0E0,0E0,0E0,0E0,0E0,0E0,0E0,0E0,0E0,0E0,0E0,0E0,0E0,0E0,0E0,0E0,0E0,0E0,0E0,0E0,0E0,0E0,0E0,0E0,0E0,0E0,0E0,0E0,0E0,0E0,0E0,0E0,0E0,0E0,0E0,0E0,0E0,0E0,0E0,0E0,0E0],"parents":[2147483647,0,0,1,1,2,2,3,3,4,4,5,5,6,6,7,7,8,8,9,9,10,10,11,11,12,12,13,13,14,14,15,15,16,16,17,17,18,18,19,19,20,20,21,21,22,22,23,23,24,24,25,25,26,26,28,28,29,29,30,30,31,31,32,32,33,33,34,34,35,35,36,36,37,37,38,38,39,39,40,40,41,41,42,42,43,43,44,44,45,45,46,46,47,47,49,49,50,50,51,51,52,52,53,53,54,54,55,55,57,57,58,58,59,59,60,60],"right_children":[2,4,6,8,10,12,14,16,18,20,22,24,26,28,30,32,34,36,38,40,42,44,46,48,50,52,54,-1,56,58,60,62,64,66,68,70,72,74,76,78,80,82,84,86,88,90,92,94,-1,96,98,100,102,104,106,108,-1,110,112,114,116,-1,-1,-1,-1,-1,-1,-1,-1,-1,-1,-1,-1,-1,-1,-1,-1,-1,-1,-1,-1,-1,-1,-1,-1,-1,-1,-1,-1,-1,-1,-1,-1,-1,-1,-1,-1,-1,-1,-1,-1,-1,-1,-1,-1,-1,-1,-1,-1,-1,-1,-1,-1,-1,-1,-1,-1],"split_conditions":[1E0,9.97551E0,1E0,1E0,1E0,4.0079304E1,9.97551E0,4.93763E0,4.93763E0,7.0073724E-1,1E0,1E0,1E0,4.93763E0,3E0,1E0,1E0,1E0,1E0,1E0,3.9897717E1,7.0451754E-1,7.0073724E-1,3E0,3E0,3E0,3E0,1.4884365E-1,3E0,7.0073724E-1,3.9897717E1,9.54E1,1E0,6.9295883E-1,1E0,3E0,6.1E1,3E0,7.0073724E-1,3E0,3E0,1E0,3E0,3E0,3E0,3E0,3E0,7.0073724E-1,1.5537737E-1,7.0073724E-1,3.9897717E1,6.1E1,8.696951E-2,6.2E1,6.850694E-1,6E1,1.4706026E-1,4.0079304E1,6.1E1,6.9295883E-1,6.1E1,1.5079282E-1,1.0178455E-1,1.0573349E-1,1.5182722E-1,2.4245294E-2,1.3115765E-1,1.5397774E-1,1.1747795E-1,-1.887462E-2,9.1489635E-2,9.9213794E-2,1.6334277E-1,-1.1731776E-1,-2.1025376E-2,-1.0475097E-2,1.0902758E-1,-1.1525114E-1,-3.1103933E-2,-2.4315504E-2,8.118507E-2,1.2597872E-1,3.6143523E-2,-7.787578E-2,4.5016985E-2,-1.5910615E-1,-1.4290763E-1,-1.4537223E-1,-7.590207E-2,-1.4232473E-1,-7.571185E-2,-7.5241335E-2,4.194806E-2,1.4298041E-1,1.5573157E-1,7.758249E-2,1.4804582E-1,1.4781484E-1,6.257462E-2,5.7430428E-2,1.4350109E-1,1.0188462E-1,1.472678E-1,-5.8219578E-2,6.2387932E-2,6.286442E-2,1.4242023E-1,6.974458E-2,1.3996202E-1,-5.31302E-2,-1.4692202E-1,1.0341995E-3,1.1721913E-1,5.622166E-2,1.4020877E-1,-5.986172E-2,6.1122704E-2],"split_indices":[14,2,21,21,21,2,2,2,2,4,16,22,22,2,1,22,16,16,16,16,2,4,4,1,1,1,1,0,1,4,2,12,16,4,22,1,0,1,4,1,1,22,1,1,1,1,1,4,0,4,2,0,4,0,4,0,0,2,0,4,0,0,0,0,0,0,0,0,0,0,0,0,0,0,0,0,0,0,0,0,0,0,0,0,0,0,0,0,0,0,0,0,0,0,0,0,0,0,0,0,0,0,0,0,0,0,0,0,0,0,0,0,0,0,0,0,0],"split_type":[0,0,0,0,0,0,0,0,0,0,0,0,0,0,0,0,0,0,0,0,0,0,0,0,0,0,0,0,0,0,0,0,0,0,0,0,0,0,0,0,0,0,0,0,0,0,0,0,0,0,0,0,0,0,0,0,0,0,0,0,0,0,0,0,0,0,0,0,0,0,0,0,0,0,0,0,0,0,0,0,0,0,0,0,0,0,0,0,0,0,0,0,0,0,0,0,0,0,0,0,0,0,0,0,0,0,0,0,0,0,0,0,0,0,0,0,0],"sum_hessian":[2.418618E4,1.8224438E4,5.9617417E3,3.5725872E3,1.4651851E4,3.9184556E3,2.0432863E3,2.3447473E3,1.2278398E3,9.841799E3,4.8100513E3,3.1301775E3,7.8827814E2,3.9098886E2,1.6522974E3,1.128243E3,1.2165043E3,6.0490466E2,6.229352E2,6.8759443E3,2.9658542E3,3.1663145E3,1.6437369E3,1.5630112E3,1.5671663E3,3.899089E2,3.9836923E2,1.8848595E2,2.0250293E2,1.0151839E3,6.371135E2,5.697382E2,5.585048E2,8.026228E2,4.138815E2,4.1388696E2,1.9101767E2,4.0853955E2,2.1439566E2,4.6072275E3,2.268717E3,2.2110645E3,7.5478986E2,2.209095E3,9.572195E2,1.1312684E3,5.124685E2,9.442592E2,6.18752E2,9.6998663E2,5.9717957E2,2.3343065E2,1.5647826E2,2.3934158E2,1.5902766E2,1.2602361E2,7.647932E1,7.1482837E2,3.0035556E2,4.7651526E2,1.6059824E2,5.605229E2,9.215338E0,3.6540335E2,1.931015E2,5.576179E2,2.4500491E2,1.9864365E2,2.1523785E2,2.571795E2,1.5670746E2,1.3372206E2,5.7295612E1,2.5374576E2,1.5479378E2,1.4951448E2,6.488118E1,2.742653E3,1.8645742E3,1.3682544E3,9.004626E2,1.1070233E3,1.1040411E3,4.556225E2,2.9916733E2,1.3276287E3,8.814662E2,5.5797406E2,3.9924542E2,6.831944E2,4.4807407E2,3.0753687E2,2.0493161E2,6.631051E2,2.8115408E2,6.829208E2,2.870659E2,5.9398883E2,3.1907477E0,1.5987662E2,7.355404E1,1.0879405E1,1.4559885E2,1.6973619E2,6.960539E1,1.1043864E2,4.8589027E1,8.677803E1,3.9245583E1,5.3322375E2,1.8160457E2,2.1016533E2,9.019023E1,3.2931216E2,1.4720311E2,1.1029492E2,5.030331E1],"tree_param":{"num_deleted":"0","num_feature":"23","num_nodes":"117","size_leaf_vector":"1"}},{"base_weights":[1.0481423E-3,-2.5706515E-1,7.9936653E-1,6.732513E-1,-4.8237875E-1,1.1215353E0,1.9269611E-1,1.0125874E0,3.6568407E-2,-1.6311218E-1,-1.1506567E0,1.2561519E0,5.972741E-1,1.227803E0,-4.6601333E-2,1.2794161E0,7.507461E-1,4.8926654E-1,-4.0130994E-1,2.772657E-1,-6.0287434E-1,-1.3273215E0,-8.15676E-1,1.4226168E0,1.0918584E0,1.0150352E0,1.9483459E-1,1.407066E0,1.0575151E0,-3.3814692E-1,6.288144E-1,1.1572427E0,1.4582388E-1,1.1360407E0,4.0874913E-1,1.6508056E-1,1.0228267E0,-7.128471E-1,3.2749465E-1,5.397135E-1,-4.8512247E-1,-9.093503E-1,-8.014442E-3,-1.4375912E0,-1.0806129E0,-1.1266946E0,-3.5196778E-1,1.3876706E0,1.4737277E-1,9.094157E-1,1.3928213E0,7.8090435E-1,1.3660287E0,-2.0758416E-1,8.087217E-1,4.655327E-2,1.4116322E0,8.5167456E-1,1.3894577E0,-7.05047E-1,2.5112358E-1,8.839414E-1,-1.05623916E-1,1.3691959E-1,9.250932E-2,9.544966E-2,1.4044917E-1,5.2958853E-3,1.0828739E-1,-1.6995994E-2,9.078761E-2,8.3850704E-2,1.4592902E-1,-1.0878748E-1,-1.2448733E-2,-2.402122E-3,1.0550157E-1,2.5680412E-2,1.1783184E-1,-8.455738E-2,2.4308968E-2,-1.1630797E-1,-3.2494668E-2,3.1086085E-2,-9.4374955E-2,-1.4893E-1,-1.3071294E-1,-1.3602649E-1,-6.998905E-2,-1.331107E-1,-6.8267964E-2,2.097907E-4,-1.3227558E-1,1.4866947E-1,1.3498776E-1,6.948695E-2,1.3943203E-1,1.3963032E-1,5.824713E-2,4.981857E-2,1.3012694E-1,6.4313225E-2,1.3768575E-1,-5.3964477E-2,5.6761123E-2,5.6870412E-2,1.3713793E-1,4.655327E-2,1.4162683E-1,6.3724585E-2,1.3354087E-1,8.455136E-2,1.4246477E-1,-9.586956E-2,-9.76643E-3,-5.3828447E-3,9.856678E-2,6.1359324E-2,1.3109915E-1,-5.4137874E-2,9.160844E-2],"categories":[],"categories_nodes":[],"categories_segments":[],"categories_sizes":[],"default_left":[0,0,0,0,0,0,0,0,0,0,0,0,0,0,0,0,0,0,0,0,0,0,0,0,0,0,0,0,0,0,0,0,0,0,0,0,0,0,0,0,0,0,0,0,0,0,0,0,0,0,0,0,0,0,0,0,0,0,0,0,0,0,0,0,0,0,0,0,0,0,0,0,0,0,0,0,0,0,0,0,0,0,0,0,0,0,0,0,0,0,0,0,0,0,0,0,0,0,0,0,0,0,0,0,0,0,0,0,0,0,0,0,0,0,0,0,0,0,0,0,0],"id":4,"left_children":[1,3,5,7,9,11,13,15,17,19,21,23,25,27,29,31,33,35,37,39,41,43,45,47,49,51,53,55,57,59,61,63,-1,65,67,69,71,73,75,77,79,81,83,85,87,89,91,93,-1,95,97,99,101,103,105,-1,107,109,111,113,115,117,119,-1,-1,-1,-1,-1,-1,-1,-1,-1,-1,-1,-1,-1,-1,-1,-1,-1,-1,-1,-1,-1,-1,-1,-1,-1,-1,-1,-1,-1,-1,-1,-1,-1,-1,-1,-1,-1,-1,-1,-1,-1,-1,-1,-1,-1,-1,-1,-1,-1,-1,-1,-1,-1,-1,-1,-1,-1,-1],"loss_changes":[4.886679E3,3.7567966E3,1.132269E3,7.549436E2,3.078049E3,2.6632275E2,4.9816495E2,1.5830078E2,2.4123529E2,1.8911478E3,2.7493848E2,8.077344E1,1.3011185E2,1.0039856E1,3.2203168E2,2.2947266E1,1.51456E2,1.0332443E2,1.4069885E2,9.7657654E2,8.90744E2,8.147705E1,2.3224329E2,6.196289E-1,8.215515E1,3.016629E1,9.800005E1,1.2072754E-1,1.232431E1,2.471253E2,9.248897E1,3.1933899E1,0E0,2.505365E1,1.468111E2,9.307554E1,1.6953278E1,9.556311E1,4.757814E1,6.55584E2,3.2833627E2,4.7776318E2,4.9630588E2,1.2261719E1,9.985449E1,8.66803E1,2.2308913E2,1.3734131E0,0E0,9.7736084E1,7.993164E-1,3.3235764E1,2.9452515E-1,6.20866E1,2.0424263E1,0E0,1.2835693E-1,1.2074081E1,2.1351624E-1,1.0839389E2,9.839424E1,4.146042E1,5.749419E1,0E0,0E0,0E0,0E0,0E0,0E0,0E0,0E0,0E0,0E0,0E0,0E0,0E0,0E0,0E0,0E0,0E0,0E0,0E0,0E0,0E0,0E0,0E0,0E0,0E0,0E0,0E0,0E0,0E0,0E0,0E0,0E0,0E0,0E0,0E0,0E0,0E0,0E0,0E0,0E0,0E0,0E0,0E0,0E0,0E0,0E0,0E0,0E0,0E0,0E0,0E0,0E0,0E0,0E0,0E0,0E0,0E0,0E0],"parents":[2147483647,0,0,1,1,2,2,3,3,4,4,5,5,6,6,7,7,8,8,9,9,10,10,11,11,12,12,13,13,14,14,15,15,16,16,17,17,18,18,19,19,20,20,21,21,22,22,23,23,24,24,25,25,26,26,27,27,28,28,29,29,30,30,31,31,33,33,34,34,35,35,36,36,37,37,38,38,39,39,40,40,41,41,42,42,43,43,44,44,45,45,46,46,47,47,49,49,50,50,51,51,52,52,53,53,54,54,56,56,57,57,58,58,59,59,60,60,61,61,62,62],"right_children":[2,4,6,8,10,12,14,16,18,20,22,24,26,28,30,32,34,36,38,40,42,44,46,48,50,52,54,56,58,60,62,64,-1,66,68,70,72,74,76,78,80,82,84,86,88,90,92,94,-1,96,98,100,102,104,106,-1,108,110,112,114,116,118,120,-1,-1,-1,-1,-1,-1,-1,-1,-1,-1,-1,-1,-1,-1,-1,-1,-1,-1,-1,-1,-1,-1,-1,-1,-1,-1,-1,-1,-1,-1,-1,-1,-1,-1,-1,-1,-1,-1,-1,-1,-1,-1,-1,-1,-1,-1,-1,-1,-1,-1,-1,-1,-1,-1,-1,-1,-1,-1],"split_conditions":[1E0,9.97551E0,1E0,1E0,1E0,4.0079304E1,9.97551E0,1E0,4.93763E0,1E0,1E0,1E0,1E0,4.93763E0,6.972468E-1,3E0,4.93763E0,3E0,7.0073724E-1,3.9897717E1,1E0,7.0073724E-1,3E0,3E0,3E0,3E0,3E0,1.4819754E0,3E0,3E0,4.0079304E1,5.321151E0,1.4582388E-1,3E0,1E0,1E0,7.0073724E-1,3E0,6.1E1,6.1E1,1E0,7.0073724E-1,3.9897717E1,6.2E1,3E0,7.0073724E-1,4.0079304E1,3.5E1,1.4737277E-1,6.1E1,3.9897717E1,6.538005E-1,8E0,7.0073724E-1,6.1E1,4.655327E-2,1E0,7.0073724E-1,2.6E1,6.1E1,6.1E1,3E0,6.1E1,1.3691959E-1,9.250932E-2,9.544966E-2,1.4044917E-1,5.2958853E-3,1.0828739E-1,-1.6995994E-2,9.078761E-2,8.3850704E-2,1.4592902E-1,-1.0878748E-1,-1.2448733E-2,-2.402122E-3,1.0550157E-1,2.5680412E-2,1.1783184E-1,-8.455738E-2,2.4308968E-2,-1.1630797E-1,-3.2494668E-2,3.1086085E-2,-9.4374955E-2,-1.4893E-1,-1.3071294E-1,-1.3602649E-1,-6.998905E-2,-1.331107E-1,-6.8267964E-2,2.097907E-4,-1.3227558E-1,1.4866947E-1,1.3498776E-1,6.948695E-2,1.3943203E-1,1.3963032E-1,5.824713E-2,4.981857E-2,1.3012694E-1,6.4313225E-2,1.3768575E-1,-5.3964477E-2,5.6761123E-2,5.6870412E-2,1.3713793E-1,4.655327E-2,1.4162683E-1,6.3724585E-2,1.3354087E-1,8.455136E-2,1.4246477E-1,-9.586956E-2,-9.76643E-3,-5.3828447E-3,9.856678E-2,6.1359324E-2,1.3109915E-1,-5.4137874E-2,9.160844E-2],"split_indices":[14,2,21,21,21,2,2,22,2,22,16,22,22,2,4,1,2,1,4,2,16,4,1,1,1,1,1,3,1,1,2,2,0,1,16,16,4,1,0,0,16,4,2,0,1,4,2,0,0,0,2,4,6,4,0,0,9,4,6,0,0,1,0,0,0,0,0,0,0,0,0,0,0,0,0,0,0,0,0,0,0,0,0,0,0,0,0,0,0,0,0,0,0,0,0,0,0,0,0,0,0,0,0,0,0,0,0,0,0,0,0,0,0,0,0,0,0,0,0,0,0],"split_type":[0,0,0,0,0,0,0,0,0,0,0,0,0,0,0,0,0,0,0,0,0,0,0,0,0,0,0,0,0,0,0,0,0,0,0,0,0,0,0,0,0,0,0,0,0,0,0,0,0,0,0,0,0,0,0,0,0,0,0,0,0,0,0,0,0,0,0,0,0,0,0,0,0,0,0,0,0,0,0,0,0,0,0,0,0,0,0,0,0,0,0,0,0,0,0,0,0,0,0,0,0,0,0,0,0,0,0,0,0,0,0,0,0,0,0,0,0,0,0,0,0],"sum_hessian":[2.3713229E4,1.7919992E4,5.7932363E3,3.4934795E3,1.4426513E4,3.7832922E3,2.0099442E3,2.2785034E3,1.2149762E3,9.763359E3,4.663154E3,3.00921E3,7.740824E2,3.7663556E2,1.6333086E3,1.1265798E3,1.1519236E3,5.973214E2,6.1765485E2,4.8784487E3,4.88491E3,3.0510854E3,1.6120685E3,1.4909229E3,1.518287E3,3.790643E2,3.9501807E2,1.799443E2,1.9669125E2,1.1412035E3,4.9210516E2,6.737433E2,4.5283652E2,5.405813E2,6.113422E2,3.723777E2,2.2494371E2,4.3270938E2,1.8494545E2,3.6293557E3,1.249093E3,3.2235737E3,1.6613363E3,2.1052769E3,9.458084E2,9.6403845E2,6.4802997E2,9.022059E2,5.8871704E2,9.4777216E2,5.7051483E2,2.2932053E2,1.4974379E2,2.3900562E2,1.5601245E2,1.3653432E0,1.7857896E2,1.2360711E2,7.3084145E1,7.0318176E2,4.3802167E2,3.6508087E2,1.2702428E2,3.4963116E2,3.2411215E2,3.252092E2,2.1537213E2,4.0085635E2,2.1048586E2,2.5715723E2,1.1522045E2,1.6020844E2,6.473527E1,2.6374567E2,1.689637E2,1.2534808E2,5.9597374E1,2.5160977E3,1.1132582E3,8.354164E2,4.1367657E2,2.2470054E3,9.7656824E2,1.2395845E3,4.2175183E2,1.5002386E3,6.050384E2,5.4379895E2,4.020095E2,6.587636E2,3.0527484E2,4.7557587E2,1.7245413E2,2.3862709E2,6.6357874E2,6.587438E2,2.8902838E2,5.6735394E2,3.1608722E0,1.498585E2,7.9462006E1,3.1012914E0,1.466425E2,1.6754173E2,7.1463875E1,1.1077078E2,4.5241673E1,1.3653432E0,1.7721362E2,8.7248924E1,3.6358185E1,5.9615464E0,6.71226E1,4.9562558E2,2.0755621E2,3.101762E2,1.2784547E2,2.2504852E2,1.4003236E2,8.937591E1,3.7648373E1],"tree_param":{"num_deleted":"0","num_feature":"23","num_nodes":"121","size_leaf_vector":"1"}},{"base_weights":[1.163064E-3,-2.361692E-1,7.4495983E-1,6.2303466E-1,-4.4256932E-1,1.052933E0,1.7754142E-1,9.436366E-1,3.3688378E-2,-1.482745E-1,-1.0754212E0,1.1847714E0,5.510391E-1,4.1919836E-1,-7.395654E-1,7.344721E-1,1.263087E0,-2.5037748E-1,6.722017E-1,-4.946942E-1,3.673838E-1,-1.2395823E0,-7.2018784E-1,1.3552295E0,1.0197413E0,9.457933E-1,1.782657E-1,1.1574838E0,1.9679657E-1,-1.0212044E0,-6.1753877E-2,5.133414E-1,1.2605101E0,1.3854629E-1,1.1407706E0,-5.362507E-1,4.1866985E-1,3.6557695E-1,1.13089E0,-7.825214E-1,6.841284E-2,6.353465E-1,-3.9778504E-1,-1.3623883E0,-1.0089134E0,-1.0045711E0,-2.0438682E-1,1.3190857E0,1.4084415E-1,8.401641E-1,1.3242756E0,7.186089E-1,1.2968683E0,-1.8798614E-1,7.4484485E-1,1.3395648E0,9.879725E-1,-1.2395912E-1,7.128497E-1,-1.3156769E0,-5.386351E-1,-4.6568033E-1,8.8282114E-1,9.545069E-2,1.0031241E-2,1.4176126E-1,1.11127995E-1,1.00491025E-1,1.439176E-1,-8.810377E-2,1.6963043E-3,8.747715E-2,-1.0913071E-3,8.666887E-2,-1.2657093E-2,9.441745E-2,1.4791423E-1,-1.0289568E-1,-2.3557257E-2,5.7866868E-2,-4.1870285E-2,3.6881294E-2,1.2659778E-1,1.7760165E-2,-9.536081E-2,-1.433981E-1,-1.254023E-1,-1.2529002E-1,-6.5740235E-2,-1.2827745E-1,-6.3794725E-2,-5.7614025E-2,6.1224576E-2,1.2717462E-1,1.4116149E-1,1.3962825E-1,6.517627E-2,1.3278008E-1,5.4274123E-2,4.548609E-2,1.2952256E-1,1.3082077E-1,5.6632884E-2,-5.0699975E-2,5.8394827E-2,5.189074E-2,1.3354185E-1,4.425135E-2,1.3440536E-1,7.867094E-2,1.322087E-1,-4.1399803E-2,5.621172E-2,4.7531527E-2,1.3002147E-1,-6.505157E-2,-1.3868336E-1,6.210796E-2,-7.02313E-2,1.7676322E-2,-9.1111146E-2,1.0305138E-1,-9.986709E-2],"categories":[],"categories_nodes":[],"categories_segments":[],"categories_sizes":[],"default_left":[0,0,0,0,0,0,0,0,0,0,0,0,0,0,0,0,0,0,0,0,0,0,0,0,0,0,0,0,0,0,0,0,0,0,0,0,0,0,0,0,0,0,0,0,0,0,0,0,0,0,0,0,0,0,0,0,0,0,0,0,0,0,0,0,0,0,0,0,0,0,0,0,0,0,0,0,0,0,0,0,0,0,0,0,0,0,0,0,0,0,0,0,0,0,0,0,0,0,0,0,0,0,0,0,0,0,0,0,0,0,0,0,0,0,0,0,0,0,0,0,0,0,0],"id":5,"left_children":[1,3,5,7,9,11,13,15,17,19,21,23,25,27,29,31,33,35,37,39,41,43,45,47,49,51,53,55,57,59,61,63,65,-1,67,69,71,73,75,77,79,81,83,85,87,89,91,93,-1,95,97,99,101,103,105,107,109,111,113,115,117,119,121,-1,-1,-1,-1,-1,-1,-1,-1,-1,-1,-1,-1,-1,-1,-1,-1,-1,-1,-1,-1,-1,-1,-1,-1,-1,-1,-1,-1,-1,-1,-1,-1,-1,-1,-1,-1,-1,-1,-1,-1,-1,-1,-1,-1,-1,-1,-1,-1,-1,-1,-1,-1,-1,-1,-1,-1,-1,-1,-1,-1],"loss_changes":[4.096157E3,3.1198833E3,9.8068555E2,6.438373E2,2.6416213E3,2.4007495E2,4.382256E2,1.4654077E2,2.1812706E2,1.7299276E3,2.6165918E2,7.964526E1,1.11479706E2,2.5665558E2,7.867023E1,1.5477588E2,1.1470581E1,1.5943158E2,5.166333E1,9.3888574E2,7.981912E2,8.5813965E1,2.0887708E2,8.613281E-1,7.914258E1,2.8440247E1,8.1371216E1,9.848999E0,1.9930217E2,4.0686676E1,4.700909E1,1.7161902E2,7.6793823E0,0E0,1.6461548E1,1.1133969E2,4.8945095E1,5.5204433E1,8.218689E0,5.164346E2,4.8746198E2,4.8406775E2,3.2318042E2,1.3762207E1,9.121716E1,9.2870056E1,1.5452344E2,1.9616699E0,0E0,9.609906E1,7.74353E-1,3.3754463E1,4.4732666E-1,5.9043056E1,1.9841858E1,9.661865E-2,1.1821869E1,1.48091E2,6.3765182E1,7.627655E0,2.1712654E1,2.4829384E1,1.1290876E1,0E0,0E0,0E0,0E0,0E0,0E0,0E0,0E0,0E0,0E0,0E0,0E0,0E0,0E0,0E0,0E0,0E0,0E0,0E0,0E0,0E0,0E0,0E0,0E0,0E0,0E0,0E0,0E0,0E0,0E0,0E0,0E0,0E0,0E0,0E0,0E0,0E0,0E0,0E0,0E0,0E0,0E0,0E0,0E0,0E0,0E0,0E0,0E0,0E0,0E0,0E0,0E0,0E0,0E0,0E0,0E0,0E0,0E0,0E0,0E0],"parents":[2147483647,0,0,1,1,2,2,3,3,4,4,5,5,6,6,7,7,8,8,9,9,10,10,11,11,12,12,13,13,14,14,15,15,16,16,17,17,18,18,19,19,20,20,21,21,22,22,23,23,24,24,25,25,26,26,27,27,28,28,29,29,30,30,31,31,32,32,34,34,35,35,36,36,37,37,38,38,39,39,40,40,41,41,42,42,43,43,44,44,45,45,46,46,47,47,49,49,50,50,51,51,52,52,53,53,54,54,55,55,56,56,57,57,58,58,59,59,60,60,61,61,62,62],"right_children":[2,4,6,8,10,12,14,16,18,20,22,24,26,28,30,32,34,36,38,40,42,44,46,48,50,52,54,56,58,60,62,64,66,-1,68,70,72,74,76,78,80,82,84,86,88,90,92,94,-1,96,98,100,102,104,106,108,110,112,114,116,118,120,122,-1,-1,-1,-1,-1,-1,-1,-1,-1,-1,-1,-1,-1,-1,-1,-1,-1,-1,-1,-1,-1,-1,-1,-1,-1,-1,-1,-1,-1,-1,-1,-1,-1,-1,-1,-1,-1,-1,-1,-1,-1,-1,-1,-1,-1,-1,-1,-1,-1,-1,-1,-1,-1,-1,-1,-1,-1,-1,-1,-1],"split_conditions":[1E0,9.97551E0,1E0,1E0,1E0,4.0079304E1,3.9897717E1,3E0,6.1E1,3E0,7.0073724E-1,1E0,1E0,9.97551E0,7.12384E-1,6.972468E-1,1E0,7.0073724E-1,3E0,1E0,3.9897717E1,1E0,1E0,3E0,3E0,3E0,3E0,4.93763E0,3E0,3E0,6.1E1,5.1261735E0,1E0,1.3854629E-1,6.972468E-1,3E0,4.7239647E0,4.93763E0,6.812426E-1,6.972468E-1,1E0,7.0073724E-1,1E0,3E0,3E0,3E0,6.1E1,6E1,1.4084415E-1,9.97551E0,3.9897717E1,6.1E1,2.96E2,6.2E1,7.1625215E-1,1.4819754E0,3E0,7.0073724E-1,6.1E1,5E0,5E0,3.6E1,4.9433315E1,9.545069E-2,1.0031241E-2,1.4176126E-1,1.11127995E-1,1.00491025E-1,1.439176E-1,-8.810377E-2,1.6963043E-3,8.747715E-2,-1.0913071E-3,8.666887E-2,-1.2657093E-2,9.441745E-2,1.4791423E-1,-1.0289568E-1,-2.3557257E-2,5.7866868E-2,-4.1870285E-2,3.6881294E-2,1.2659778E-1,1.7760165E-2,-9.536081E-2,-1.433981E-1,-1.254023E-1,-1.2529002E-1,-6.5740235E-2,-1.2827745E-1,-6.3794725E-2,-5.7614025E-2,6.1224576E-2,1.2717462E-1,1.4116149E-1,1.3962825E-1,6.517627E-2,1.3278008E-1,5.4274123E-2,4.548609E-2,1.2952256E-1,1.3082077E-1,5.6632884E-2,-5.0699975E-2,5.8394827E-2,5.189074E-2,1.3354185E-1,4.425135E-2,1.3440536E-1,7.867094E-2,1.322087E-1,-4.1399803E-2,5.621172E-2,4.7531527E-2,1.3002147E-1,-6.505157E-2,-1.3868336E-1,6.210796E-2,-7.02313E-2,1.7676322E-2,-9.1111146E-2,1.0305138E-1,-9.986709E-2],"split_indices":[14,2,21,21,21,2,2,1,0,1,4,22,22,2,4,4,22,4,1,16,2,16,16,1,1,1,1,2,1,1,0,2,22,0,4,1,2,2,4,4,22,4,22,1,1,1,0,0,0,2,2,0,6,0,4,3,1,4,0,11,11,0,2,0,0,0,0,0,0,0,0,0,0,0,0,0,0,0,0,0,0,0,0,0,0,0,0,0,0,0,0,0,0,0,0,0,0,0,0,0,0,0,0,0,0,0,0,0,0,0,0,0,0,0,0,0,0,0,0,0,0,0,0],"split_type":[0,0,0,0,0,0,0,0,0,0,0,0,0,0,0,0,0,0,0,0,0,0,0,0,0,0,0,0,0,0,0,0,0,0,0,0,0,0,0,0,0,0,0,0,0,0,0,0,0,0,0,0,0,0,0,0,0,0,0,0,0,0,0,0,0,0,0,0,0,0,0,0,0,0,0,0,0,0,0,0,0,0,0,0,0,0,0,0,0,0,0,0,0,0,0,0,0,0,0,0,0,0,0,0,0,0,0,0,0,0,0,0,0,0,0,0,0,0,0,0,0,0,0],"sum_hessian":[2.3202148E4,1.7590133E4,5.6120146E3,3.4066963E3,1.4183437E4,3.6370864E3,1.9749283E3,2.206026E3,1.2006703E3,9.682174E3,4.5012627E3,2.8793684E3,7.577182E2,1.5634922E3,4.1143613E2,1.3351304E3,8.7089557E2,8.313998E2,3.692705E2,5.7914883E3,3.890686E3,3.0768804E3,1.4243821E3,1.4128434E3,1.4665249E3,3.672626E2,3.9045557E2,3.609795E2,1.2025127E3,2.9030444E2,1.2113168E2,9.4137866E2,3.9375168E2,4.301801E2,4.4071542E2,5.8264386E2,2.4875592E2,2.2239832E2,1.4687221E2,3.8322683E3,1.9592198E3,2.881687E3,1.0089992E3,2.0046938E3,1.0721866E3,9.1754987E2,5.068322E2,8.5671643E2,5.56127E2,9.2489404E2,5.4163086E2,2.248237E2,1.424389E2,2.3755919E2,1.528964E2,1.7070921E2,1.9027028E2,7.420483E2,4.6046445E2,1.7921674E2,1.110877E2,8.520336E1,3.592832E1,4.5455124E2,4.868274E2,1.8767587E2,2.060758E2,3.0583847E2,1.3487697E2,3.5857294E2,2.2407094E2,1.2015125E2,1.2860468E2,1.09818535E2,1.1257978E2,9.8026474E1,4.884573E1,2.6413088E3,1.1909595E3,9.567901E2,1.00242975E3,2.0266971E3,8.549898E2,4.9610892E2,5.128903E2,1.1997985E3,8.048954E2,6.3137775E2,4.4080884E2,5.202627E2,3.9728717E2,3.4848627E2,1.5834595E2,5.7650806E2,2.802084E2,2.3242297E2,6.9247107E2,5.3850287E2,3.1279569E0,1.5549031E2,6.933339E1,1.3948314E2,2.9557729E0,1.683353E2,6.92239E1,1.11947105E2,4.094928E1,1.3457706E0,1.6936345E2,1.2083601E2,6.9434265E1,5.218378E2,2.2021045E2,3.291594E2,1.3130508E2,1.8299385E1,1.6091734E2,1.3393764E1,9.769394E1,3.513355E1,5.006981E1,3.3732677E1,2.1956456E0],"tree_param":{"num_deleted":"0","num_feature":"23","num_nodes":"123","size_leaf_vector":"1"}},{"base_weights":[1.2694357E-3,-2.1742103E-1,6.962196E-1,5.000037E-2,-7.84945E-1,9.918529E-1,1.636512E-1,2.711918E-1,-7.8609455E-1,4.7263224E-2,-1.0085624E0,1.1221522E0,5.087145E-1,1.0942801E0,-3.86296E-2,2.8849285E-2,8.274604E-1,-1.0510345E0,-1.886658E-1,-2.4434528E-1,6.389049E-1,-1.1724443E0,-6.624877E-1,1.2982768E0,9.552976E-1,8.8343614E-1,1.6301093E-1,1.2820317E0,9.2361397E-1,-2.8791553E-1,5.4302675E-1,5.085326E-1,-2.8700274E-1,1.1516215E0,5.042773E-1,-7.6708746E-1,-1.3378484E0,-6.404156E-1,4.945917E-1,1.6465698E-1,-6.754184E-1,1.0235338E0,2.9806885E-1,-1.299305E0,-9.3898916E-1,-9.845503E-1,-2.3093322E-1,1.2604488E0,1.354389E-1,8.0002046E-1,1.3295582E-1,6.620965E-1,1.2373103E0,-1.6969167E-1,6.876797E-1,3.7709363E-2,1.286911E0,7.2560835E-1,1.2638888E0,-6.663269E-2,-9.565396E-1,2.9787877E-1,1.1259303E0,2.4723237E-2,1.0446843E-1,5.0166924E-2,-5.2513856E-2,9.96302E-2,1.3911133E-1,1.2229121E-2,1.05511665E-1,-1.12434916E-1,-2.5433103E-2,-8.029967E-2,-1.3957527E-1,-9.9083535E-2,6.484849E-4,1.1620724E-1,-1.3063303E-2,-1.5728256E-2,7.224917E-2,-9.525068E-2,-4.190476E-3,8.511678E-2,1.4213517E-1,-7.951894E-3,8.8466704E-2,-1.373231E-1,-1.1883245E-1,-1.14256896E-1,-4.9301263E-2,-1.2175565E-1,-5.977383E-2,7.254834E-3,-1.11482225E-1,1.2119786E-1,1.3559565E-1,5.6434322E-2,1.21992506E-1,4.1235067E-2,1.2372835E-1,7.9213224E-2,1.2647569E-1,-4.713275E-2,5.32235E-2,4.570778E-2,1.2472397E-1,4.208147E-2,1.2914743E-1,5.011619E-2,1.20490424E-1,7.16752E-2,1.3012126E-1,-3.3714186E-2,5.8203842E-2,-1.2388072E-1,-5.1502902E-2,5.7457864E-2,-4.325096E-2,1.16534136E-1,-9.213745E-2],"categories":[],"categories_nodes":[],"categories_segments":[],"categories_sizes":[],"default_left":[0,0,0,0,0,0,0,0,0,0,0,0,0,0,0,0,0,0,0,0,0,0,0,0,0,0,0,0,0,0,0,0,0,0,0,0,0,0,0,0,0,0,0,0,0,0,0,0,0,0,0,0,0,0,0,0,0,0,0,0,0,0,0,0,0,0,0,0,0,0,0,0,0,0,0,0,0,0,0,0,0,0,0,0,0,0,0,0,0,0,0,0,0,0,0,0,0,0,0,0,0,0,0,0,0,0,0,0,0,0,0,0,0,0,0,0,0,0,0,0,0],"id":6,"left_children":[1,3,5,7,9,11,13,15,17,19,21,23,25,27,29,31,33,35,37,39,41,43,45,47,49,51,53,55,57,59,61,63,65,67,69,71,73,75,77,79,81,83,85,87,89,91,93,95,-1,97,-1,99,101,103,105,-1,107,109,111,113,115,117,119,-1,-1,-1,-1,-1,-1,-1,-1,-1,-1,-1,-1,-1,-1,-1,-1,-1,-1,-1,-1,-1,-1,-1,-1,-1,-1,-1,-1,-1,-1,-1,-1,-1,-1,-1,-1,-1,-1,-1,-1,-1,-1,-1,-1,-1,-1,-1,-1,-1,-1,-1,-1,-1,-1,-1,-1,-1,-1],"loss_changes":[3.4430327E3,2.6153083E3,8.536074E2,2.1665247E3,1.0271565E3,2.1893188E2,3.6465262E2,1.2488224E3,3.8772998E2,2.0199553E2,2.4595459E2,7.9437744E1,9.603549E1,9.898254E0,2.3099411E2,9.7795044E2,2.9392444E2,1.3723267E2,2.33103E2,1.3840396E2,5.036621E1,8.6177246E1,1.9440277E2,1.1218262E0,8.1083984E1,2.7068756E1,6.7741806E1,2.3052979E-1,1.1530685E1,1.6491295E2,6.7962875E1,3.5876837E2,7.312364E2,5.079016E1,2.96443E2,1.5642184E2,2.4994263E1,1.0302208E2,1.2565785E2,7.254088E1,6.702992E1,1.12140045E1,4.5772667E1,1.4033936E1,9.409601E1,7.151941E1,1.6096045E2,2.1087646E0,0E0,9.842871E1,0E0,3.1264404E1,6.580963E-1,5.061534E1,1.8853745E1,0E0,9.207153E-2,1.2212574E1,4.2765045E-1,1.4739143E2,3.3906647E1,6.851981E1,1.2461761E1,0E0,0E0,0E0,0E0,0E0,0E0,0E0,0E0,0E0,0E0,0E0,0E0,0E0,0E0,0E0,0E0,0E0,0E0,0E0,0E0,0E0,0E0,0E0,0E0,0E0,0E0,0E0,0E0,0E0,0E0,0E0,0E0,0E0,0E0,0E0,0E0,0E0,0E0,0E0,0E0,0E0,0E0,0E0,0E0,0E0,0E0,0E0,0E0,0E0,0E0,0E0,0E0,0E0,0E0,0E0,0E0,0E0,0E0],"parents":[2147483647,0,0,1,1,2,2,3,3,4,4,5,5,6,6,7,7,8,8,9,9,10,10,11,11,12,12,13,13,14,14,15,15,16,16,17,17,18,18,19,19,20,20,21,21,22,22,23,23,24,24,25,25,26,26,27,27,28,28,29,29,30,30,31,31,32,32,33,33,34,34,35,35,36,36,37,37,38,38,39,39,40,40,41,41,42,42,43,43,44,44,45,45,46,46,47,47,49,49,51,51,52,52,53,53,54,54,56,56,57,57,58,58,59,59,60,60,61,61,62,62],"right_children":[2,4,6,8,10,12,14,16,18,20,22,24,26,28,30,32,34,36,38,40,42,44,46,48,50,52,54,56,58,60,62,64,66,68,70,72,74,76,78,80,82,84,86,88,90,92,94,96,-1,98,-1,100,102,104,106,-1,108,110,112,114,116,118,120,-1,-1,-1,-1,-1,-1,-1,-1,-1,-1,-1,-1,-1,-1,-1,-1,-1,-1,-1,-1,-1,-1,-1,-1,-1,-1,-1,-1,-1,-1,-1,-1,-1,-1,-1,-1,-1,-1,-1,-1,-1,-1,-1,-1,-1,-1,-1,-1,-1,-1,-1,-1,-1,-1,-1,-1,-1,-1],"split_conditions":[1E0,1E0,1E0,3.9897717E1,9.791113E0,4.0079304E1,9.97551E0,6.1E1,7.0073724E-1,1E0,7.0073724E-1,1E0,1E0,4.93763E0,6.972468E-1,3.5E1,1E0,1E0,3E0,4.93763E0,4.93763E0,1E0,3E0,3E0,7.0073724E-1,3E0,3E0,1E0,3E0,3.9897717E1,6.1E1,1E0,9.97551E0,3E0,3E0,3E0,5E0,1E0,1E0,3E0,7.0073724E-1,6.1E1,3E0,3E0,6.1E1,1E0,4.0079304E1,6E1,1.354389E-1,3E0,1.3295582E-1,7.0073724E-1,8.696951E-2,7.0073724E-1,6.1E1,3.7709363E-2,1.4819754E0,6E1,2.6E1,6.1E1,3E0,3.9702538E1,4.9433315E1,2.4723237E-2,1.0446843E-1,5.0166924E-2,-5.2513856E-2,9.96302E-2,1.3911133E-1,1.2229121E-2,1.05511665E-1,-1.12434916E-1,-2.5433103E-2,-8.029967E-2,-1.3957527E-1,-9.9083535E-2,6.484849E-4,1.1620724E-1,-1.3063303E-2,-1.5728256E-2,7.224917E-2,-9.525068E-2,-4.190476E-3,8.511678E-2,1.4213517E-1,-7.951894E-3,8.8466704E-2,-1.373231E-1,-1.1883245E-1,-1.14256896E-1,-4.9301263E-2,-1.2175565E-1,-5.977383E-2,7.254834E-3,-1.11482225E-1,1.2119786E-1,1.3559565E-1,5.6434322E-2,1.21992506E-1,4.1235067E-2,1.2372835E-1,7.9213224E-2,1.2647569E-1,-4.713275E-2,5.32235E-2,4.570778E-2,1.2472397E-1,4.208147E-2,1.2914743E-1,5.011619E-2,1.20490424E-1,7.16752E-2,1.3012126E-1,-3.3714186E-2,5.8203842E-2,-1.2388072E-1,-5.1502902E-2,5.7457864E-2,-4.325096E-2,1.16534136E-1,-9.213745E-2],"split_indices":[14,21,21,2,2,2,2,0,4,16,4,22,22,2,4,0,22,22,1,2,2,16,1,1,4,1,1,9,1,2,0,16,2,1,1,1,11,16,22,1,4,0,1,1,0,16,2,0,0,1,0,4,4,4,0,0,3,0,6,0,1,2,2,0,0,0,0,0,0,0,0,0,0,0,0,0,0,0,0,0,0,0,0,0,0,0,0,0,0,0,0,0,0,0,0,0,0,0,0,0,0,0,0,0,0,0,0,0,0,0,0,0,0,0,0,0,0,0,0,0,0],"split_type":[0,0,0,0,0,0,0,0,0,0,0,0,0,0,0,0,0,0,0,0,0,0,0,0,0,0,0,0,0,0,0,0,0,0,0,0,0,0,0,0,0,0,0,0,0,0,0,0,0,0,0,0,0,0,0,0,0,0,0,0,0,0,0,0,0,0,0,0,0,0,0,0,0,0,0,0,0,0,0,0,0,0,0,0,0,0,0,0,0,0,0,0,0,0,0,0,0,0,0,0,0,0,0,0,0,0,0,0,0,0,0,0,0,0,0,0,0,0,0,0,0],"sum_hessian":[2.2652668E4,1.7231012E4,5.4216553E3,1.1712779E4,5.5182334E3,3.4857974E3,1.935858E3,9.262921E3,2.449858E3,1.1688954E3,4.3493384E3,2.7443428E3,7.414545E2,3.448597E2,1.5909984E3,6.4527744E3,2.8101467E3,1.6966781E3,7.531798E2,7.8337317E2,3.8552216E2,2.9499958E3,1.3993423E3,1.3317861E3,1.4125568E3,3.5504828E2,3.8640625E2,1.611096E2,1.8375009E2,1.1140461E3,4.7695224E2,2.561708E3,3.8910664E3,1.401671E3,1.4084757E3,8.5444684E2,8.422312E2,4.534408E2,2.99739E2,4.022943E2,3.810789E2,1.8018396E2,2.0533818E2,1.9083978E3,1.0415981E3,8.0059155E2,5.9875073E2,8.0951514E2,5.22271E2,1.0005682E3,4.119886E2,2.2019357E2,1.348547E2,2.3687549E2,1.4953075E2,1.283868E0,1.5982573E2,1.18138084E2,6.561201E1,8.378554E2,2.7619077E2,3.368123E2,1.4013994E2,1.7232982E3,8.384097E2,9.021539E2,2.9889124E3,8.533812E2,5.482898E2,8.324355E2,5.760402E2,5.0287634E2,3.5157053E2,8.372695E1,7.585043E2,2.9377438E2,1.5966641E2,1.4455528E2,1.5518373E2,2.5553632E2,1.4675798E2,2.6476953E2,1.1630936E2,1.2790501E2,5.2278957E1,1.2545099E2,7.988719E1,1.1385912E3,7.698066E2,7.1407477E2,3.2752344E2,4.982875E2,3.0230405E2,4.4639862E2,1.5235214E2,5.4607227E2,2.6344284E2,6.423721E2,3.5819614E2,1.5472775E2,6.5465805E1,9.5654955E0,1.2528921E2,1.6590877E2,7.096672E1,1.07178116E2,4.235263E1,1.3262298E0,1.5849951E2,8.185318E1,3.6284904E1,5.480201E0,6.0131805E1,5.916185E2,2.4623685E2,1.6737701E2,1.0881375E2,2.4442705E2,9.2385254E1,1.3791583E2,2.2241147E0],"tree_param":{"num_deleted":"0","num_feature":"23","num_nodes":"121","size_leaf_vector":"1"}},{"base_weights":[1.2898557E-3,-1.9983368E-1,6.5151966E-1,5.484896E-1,-3.7828085E-1,9.3707985E-1,1.5073097E-1,8.409588E-1,2.898605E-2,-1.2879236E-1,-9.487E-1,1.0663959E0,4.7064054E-1,1.0381701E0,-3.5307076E-2,1.1152569E0,5.841669E-1,-2.291644E-1,6.144676E-1,-3.845208E-1,4.5760456E-1,-1.1292378E0,-6.3098264E-1,1.2493429E0,8.971335E-1,2.5148675E-1,9.936958E-1,1.2325101E0,8.660761E-1,-3.3374873E-1,4.4038606E-1,1.2690192E0,9.538102E-1,3.4616643E-1,1.142085E0,2.7670944E-1,-5.689807E-1,3.805568E-1,1.1403391E0,-1.5349286E-2,-7.6079375E-1,8.7242734E-1,5.393856E-2,-1.2732984E0,-9.3131685E-1,-4.0951967E-1,-1.2516603E0,1.2094073E0,1.3090824E-1,7.4516493E-1,1.2734169E0,8.2311386E-1,-1.2122645E-1,1.2404921E0,7.660394E-1,3.589768E-2,1.2374467E0,6.709744E-1,1.2139678E0,-5.724856E-1,2.2781236E-1,2.1082987E-1,9.9508333E-1,1.2754025E-1,6.755949E-2,7.7932686E-2,1.3164027E-1,1.7088872E-3,9.904786E-2,1.009977E-1,1.3416715E-1,-1.5014568E-3,9.158068E-2,-8.5973285E-2,2.1153726E-4,8.735805E-3,9.5140904E-2,1.1970413E-1,-4.0710135E-3,-3.527647E-2,4.929572E-2,-1.01398386E-1,-2.9045353E-2,6.0294267E-2,1.313032E-1,-2.9259518E-2,7.308579E-2,-1.0400494E-1,-1.2984371E-1,-1.1311554E-1,-4.906022E-2,-7.845887E-2,1.176277E-2,-1.3853517E-1,-9.697514E-2,1.1620569E-1,1.3161461E-1,1.288081E-1,5.644502E-2,1.2754636E-1,4.8807472E-2,1.1773554E-1,5.4575987E-2,-5.0399717E-2,4.7891792E-2,2.080622E-3,1.2579308E-1,5.0555665E-2,1.3392928E-1,4.0033065E-2,1.2420755E-1,4.408868E-2,1.1559192E-1,6.751375E-2,1.2519743E-1,3.0238368E-3,-9.771403E-2,4.5336407E-2,-6.3255034E-2,4.539585E-2,-4.543924E-2,1.1722608E-1,5.4416467E-2],"categories":[],"categories_nodes":[],"categories_segments":[],"categories_sizes":[],"default_left":[0,0,0,0,0,0,0,0,0,0,0,0,0,0,0,0,0,0,0,0,0,0,0,0,0,0,0,0,0,0,0,0,0,0,0,0,0,0,0,0,0,0,0,0,0,0,0,0,0,0,0,0,0,0,0,0,0,0,0,0,0,0,0,0,0,0,0,0,0,0,0,0,0,0,0,0,0,0,0,0,0,0,0,0,0,0,0,0,0,0,0,0,0,0,0,0,0,0,0,0,0,0,0,0,0,0,0,0,0,0,0,0,0,0,0,0,0,0,0,0,0,0,0],"id":7,"left_children":[1,3,5,7,9,11,13,15,17,19,21,23,25,27,29,31,33,35,37,39,41,43,45,47,49,51,53,55,57,59,61,63,65,67,69,71,73,75,77,79,81,83,85,87,89,91,93,95,-1,97,99,101,103,105,107,-1,109,111,113,115,117,119,121,-1,-1,-1,-1,-1,-1,-1,-1,-1,-1,-1,-1,-1,-1,-1,-1,-1,-1,-1,-1,-1,-1,-1,-1,-1,-1,-1,-1,-1,-1,-1,-1,-1,-1,-1,-1,-1,-1,-1,-1,-1,-1,-1,-1,-1,-1,-1,-1,-1,-1,-1,-1,-1,-1,-1,-1,-1,-1,-1,-1],"loss_changes":[2.8970776E3,2.2595728E3,7.4826196E2,4.9502454E2,1.9441992E3,2.0052075E2,3.1399957E2,1.461814E2,1.7767722E2,1.4257054E3,2.3773999E2,7.965454E1,8.287898E1,9.956024E0,2.234719E2,2.3783691E1,1.4284592E2,1.4041803E2,4.3812546E1,9.195634E2,4.8341364E2,7.436035E1,2.0684937E2,1.4013672E0,7.67334E1,1.0926909E2,1.1061569E1,2.1313477E-1,1.1278595E1,1.2979855E2,7.706671E1,1.0803223E0,3.0301758E1,1.6061792E2,7.1387634E0,6.126455E1,8.109857E1,4.183828E1,7.4313354E0,5.734541E2,3.9011902E2,1.6827148E2,3.437125E2,7.624756E0,9.8073E1,2.2021596E2,1.3589905E1,2.326538E0,0E0,9.445038E1,3.4179688E-3,1.9239853E1,7.169271E1,2.121399E0,1.6319206E1,0E0,8.848572E-2,1.2476879E1,4.404602E-1,1.6562451E2,5.6415825E1,6.983472E1,1.3532547E1,0E0,0E0,0E0,0E0,0E0,0E0,0E0,0E0,0E0,0E0,0E0,0E0,0E0,0E0,0E0,0E0,0E0,0E0,0E0,0E0,0E0,0E0,0E0,0E0,0E0,0E0,0E0,0E0,0E0,0E0,0E0,0E0,0E0,0E0,0E0,0E0,0E0,0E0,0E0,0E0,0E0,0E0,0E0,0E0,0E0,0E0,0E0,0E0,0E0,0E0,0E0,0E0,0E0,0E0,0E0,0E0,0E0,0E0,0E0,0E0],"parents":[2147483647,0,0,1,1,2,2,3,3,4,4,5,5,6,6,7,7,8,8,9,9,10,10,11,11,12,12,13,13,14,14,15,15,16,16,17,17,18,18,19,19,20,20,21,21,22,22,23,23,24,24,25,25,26,26,27,27,28,28,29,29,30,30,31,31,32,32,33,33,34,34,35,35,36,36,37,37,38,38,39,39,40,40,41,41,42,42,43,43,44,44,45,45,46,46,47,47,49,49,50,50,51,51,52,52,53,53,54,54,56,56,57,57,58,58,59,59,60,60,61,61,62,62],"right_children":[2,4,6,8,10,12,14,16,18,20,22,24,26,28,30,32,34,36,38,40,42,44,46,48,50,52,54,56,58,60,62,64,66,68,70,72,74,76,78,80,82,84,86,88,90,92,94,96,-1,98,100,102,104,106,108,-1,110,112,114,116,118,120,122,-1,-1,-1,-1,-1,-1,-1,-1,-1,-1,-1,-1,-1,-1,-1,-1,-1,-1,-1,-1,-1,-1,-1,-1,-1,-1,-1,-1,-1,-1,-1,-1,-1,-1,-1,-1,-1,-1,-1,-1,-1,-1,-1,-1,-1,-1,-1,-1,-1,-1,-1,-1,-1,-1,-1,-1,-1,-1,-1,-1],"split_conditions":[1E0,9.97551E0,1E0,1E0,1E0,4.0079304E1,9.97551E0,1E0,6.1E1,7.0073724E-1,1E0,1E0,6.1E1,4.93763E0,3E0,5.321151E0,6.972468E-1,3.5E1,7.0073724E-1,1E0,1E0,3E0,3.9897717E1,3E0,7.0073724E-1,3.5E1,1E0,1E0,3E0,6.1E1,6.972468E-1,9.62E1,1E0,1E0,3E0,1E0,1E0,1E0,9.602724E0,3E0,1E0,3E0,1E0,5E0,6.1E1,3E0,6.8921965E-1,7.0073724E-1,1.3090824E-1,9.97551E0,3.2014676E2,2.5E1,3E0,2.374653E0,7.0073724E-1,3.589768E-2,1.4819754E0,6.5806824E-1,2.6E1,3.5E1,4.106298E1,3.935181E1,3.9702538E1,1.2754025E-1,6.755949E-2,7.7932686E-2,1.3164027E-1,1.7088872E-3,9.904786E-2,1.009977E-1,1.3416715E-1,-1.5014568E-3,9.158068E-2,-8.5973285E-2,2.1153726E-4,8.735805E-3,9.5140904E-2,1.1970413E-1,-4.0710135E-3,-3.527647E-2,4.929572E-2,-1.01398386E-1,-2.9045353E-2,6.0294267E-2,1.313032E-1,-2.9259518E-2,7.308579E-2,-1.0400494E-1,-1.2984371E-1,-1.1311554E-1,-4.906022E-2,-7.845887E-2,1.176277E-2,-1.3853517E-1,-9.697514E-2,1.1620569E-1,1.3161461E-1,1.288081E-1,5.644502E-2,1.2754636E-1,4.8807472E-2,1.1773554E-1,5.4575987E-2,-5.0399717E-2,4.7891792E-2,2.080622E-3,1.2579308E-1,5.0555665E-2,1.3392928E-1,4.0033065E-2,1.2420755E-1,4.408868E-2,1.1559192E-1,6.751375E-2,1.2519743E-1,3.0238368E-3,-9.771403E-2,4.5336407E-2,-6.3255034E-2,4.539585E-2,-4.543924E-2,1.1722608E-1,5.4416467E-2],"split_indices":[14,2,21,21,21,2,2,22,0,4,16,22,0,2,1,2,4,0,4,22,22,1,2,1,4,0,22,9,1,0,4,12,16,16,1,16,16,16,2,1,16,1,16,11,0,1,4,4,0,2,13,0,1,3,4,0,3,4,6,0,2,2,2,0,0,0,0,0,0,0,0,0,0,0,0,0,0,0,0,0,0,0,0,0,0,0,0,0,0,0,0,0,0,0,0,0,0,0,0,0,0,0,0,0,0,0,0,0,0,0,0,0,0,0,0,0,0,0,0,0,0,0,0],"split_type":[0,0,0,0,0,0,0,0,0,0,0,0,0,0,0,0,0,0,0,0,0,0,0,0,0,0,0,0,0,0,0,0,0,0,0,0,0,0,0,0,0,0,0,0,0,0,0,0,0,0,0,0,0,0,0,0,0,0,0,0,0,0,0,0,0,0,0,0,0,0,0,0,0,0,0,0,0,0,0,0,0,0,0,0,0,0,0,0,0,0,0,0,0,0,0,0,0,0,0,0,0,0,0,0,0,0,0,0,0,0,0,0,0,0,0,0,0,0,0,0,0,0,0],"sum_hessian":[2.2150895E4,1.6918502E4,5.232394E3,3.257213E3,1.3661288E4,3.3317112E3,1.9006826E3,2.0835825E3,1.1736304E3,9.505168E3,4.1561206E3,2.6075151E3,7.2419604E2,3.286024E2,1.5720803E3,1.00583435E3,1.077748E3,8.1492316E2,3.587072E2,6.6189707E3,2.8861973E3,2.648563E3,1.5075574E3,1.2500349E3,1.3574802E3,5.1140457E2,2.127915E2,1.5143265E2,1.7716972E2,9.662009E2,6.0587933E2,5.1166385E2,4.941705E2,7.566091E2,3.21139E2,3.275281E2,4.8739508E2,2.4946663E2,1.092406E2,3.3415383E3,3.2774324E3,1.4228551E3,1.4633422E3,1.5297042E3,1.1188588E3,1.112329E3,3.9522845E2,7.619309E2,4.8810397E2,9.6908044E2,3.883998E2,2.0136475E2,3.1003983E2,9.9968895E1,1.1282261E2,1.2652383E0,1.501674E2,1.1538766E2,6.178207E1,6.7795984E2,2.8824106E2,4.2951056E2,1.7636877E2,5.0508173E2,6.5821376E0,3.3575223E2,1.5841826E2,5.0149884E2,2.5511021E2,1.9688176E2,1.2425726E2,2.2554965E2,1.01978455E2,3.2263312E2,1.6476195E2,1.655768E2,8.3889824E1,1.04223305E2,5.0173006E0,2.0085576E3,1.3329807E3,2.129786E3,1.1476466E3,8.8433966E2,5.3851544E2,9.682407E2,4.9510144E2,1.529489E2,1.3767554E3,7.6872156E2,3.501372E2,6.496267E2,4.6270224E2,2.6543533E2,1.2979312E2,5.360296E2,2.2590134E2,2.404814E2,7.2859906E2,3.867678E2,1.6320083E0,8.7000786E1,1.1436396E2,1.8940071E2,1.2063912E2,1.4400893E0,9.852881E1,7.886758E1,3.395503E1,1.3068604E0,1.4886055E2,7.955231E1,3.583535E1,5.3069773E0,5.647509E1,2.7270187E2,4.05258E2,2.2874626E2,5.9494804E1,3.147806E2,1.1472996E2,1.2546906E2,5.089972E1],"tree_param":{"num_deleted":"0","num_feature":"23","num_nodes":"123","size_leaf_vector":"1"}},{"base_weights":[1.427593E-3,-1.842276E-1,6.0958177E-1,-5.881554E-3,-8.778574E-1,8.851006E-1,1.3905169E-1,2.4283943E-1,-5.46923E-1,-1.0525068E0,-5.0376546E-1,1.0149804E0,4.327351E-1,9.874937E-1,-3.2046266E-2,-4.1364286E-2,6.7714137E-1,3.9795595E-1,-6.9750124E-1,-1.198426E0,-7.862094E-1,-2.1912615E-1,-1.1369281E0,1.2066375E0,8.424325E-1,7.941497E-1,1.1158286E-1,1.1890844E0,8.138249E-1,-3.0328512E-1,4.0429184E-1,3.382917E-1,-4.249929E-1,4.6248895E-1,1.129613E0,1.642212E-1,9.498529E-1,-9.362992E-1,-2.8094953E-1,-1.2969545E0,-9.77264E-1,-5.4739493E-1,-1.3092594E0,-6.1713624E-1,3.879724E-1,-4.756875E-1,-1.2111319E0,1.1642017E0,1.2707134E-1,6.566277E-1,1.1818807E0,5.9370375E-1,1.1785014E0,-1.3655294E-1,7.040351E-1,3.418129E-2,1.1941316E0,6.215948E-1,1.1699779E0,-5.363874E-1,2.3628427E-1,1.8306406E-1,9.63283E-1,7.0446E-3,9.090938E-2,7.498352E-2,-5.6804623E-2,2.2002256E-2,1.04953244E-1,1.0110587E-1,1.4022581E-1,-1.5502276E-2,6.932684E-2,7.708422E-2,1.2846689E-1,-1.1578693E-1,-6.338797E-2,-5.7187635E-2,3.25319E-2,-9.175469E-2,-1.3586362E-1,-1.19826615E-1,-6.791667E-2,-1.0806382E-2,-9.877184E-2,4.335666E-2,-1.3200532E-1,-1.846563E-2,-1.08583294E-1,9.4785996E-2,-1.2193653E-2,-7.81778E-2,7.352503E-2,-1.3166481E-1,-9.491701E-2,1.1099448E-1,1.2726204E-1,4.3425858E-2,1.1747702E-1,1.1862066E-1,3.79397E-2,3.2189753E-2,1.0715484E-1,1.3270675E-1,1.088715E-1,4.5648813E-2,-5.1829707E-2,4.57959E-2,1.2685454E-1,3.8096827E-2,1.198879E-1,4.145198E-2,1.132852E-1,6.361329E-2,1.2091124E-1,-3.5052042E-2,-1.1542417E-1,-2.5561322E-3,8.8498406E-2,8.6149424E-2,-2.4883924E-2,1.17583826E-1,5.2562457E-2],"categories":[],"categories_nodes":[],"categories_segments":[],"categories_sizes":[],"default_left":[0,0,0,0,0,0,0,0,0,0,0,0,0,0,0,0,0,0,0,0,0,0,0,0,0,0,0,0,0,0,0,0,0,0,0,0,0,0,0,0,0,0,0,0,0,0,0,0,0,0,0,0,0,0,0,0,0,0,0,0,0,0,0,0,0,0,0,0,0,0,0,0,0,0,0,0,0,0,0,0,0,0,0,0,0,0,0,0,0,0,0,0,0,0,0,0,0,0,0,0,0,0,0,0,0,0,0,0,0,0,0,0,0,0,0,0,0,0,0,0,0,0,0],"id":8,"left_children":[1,3,5,7,9,11,13,15,17,19,21,23,25,27,29,31,33,35,37,39,41,43,45,47,49,51,53,55,57,59,61,63,65,67,69,71,73,75,77,79,81,83,85,87,89,91,93,95,-1,97,99,101,103,105,107,-1,109,111,113,115,117,119,121,-1,-1,-1,-1,-1,-1,-1,-1,-1,-1,-1,-1,-1,-1,-1,-1,-1,-1,-1,-1,-1,-1,-1,-1,-1,-1,-1,-1,-1,-1,-1,-1,-1,-1,-1,-1,-1,-1,-1,-1,-1,-1,-1,-1,-1,-1,-1,-1,-1,-1,-1,-1,-1,-1,-1,-1,-1,-1,-1,-1],"loss_changes":[2.439293E3,2.0475333E3,6.549243E2,1.772037E3,2.2064868E2,1.8678394E2,2.7108893E2,1.1135178E3,5.9032104E2,8.870093E1,1.9427829E2,8.083325E1,8.2618866E1,1.0003876E1,1.8413948E2,7.9447656E2,3.4605334E2,7.3461075E1,3.5558923E2,3.1166016E1,1.0165289E2,1.8046326E2,1.5837067E1,1.7026367E0,8.1579834E1,2.5117432E1,5.573376E1,2.027893E-1,1.1015579E1,1.2079263E2,7.358309E1,4.1910022E2,4.5640857E2,3.4450116E2,3.5671997E1,6.802174E1,9.173416E0,1.5160303E2,2.30358E2,2.277893E1,2.9674408E1,1.0906766E2,5.391388E0,9.119713E1,8.461142E1,1.36951475E1,7.045746E0,2.7990723E0,0E0,9.697742E1,1.1490479E0,2.852243E1,7.380676E-2,6.081455E1,1.4960972E1,0E0,8.998108E-2,1.1549572E1,4.6327972E-1,7.656688E1,4.9302727E1,1.25790215E2,1.5092819E1,0E0,0E0,0E0,0E0,0E0,0E0,0E0,0E0,0E0,0E0,0E0,0E0,0E0,0E0,0E0,0E0,0E0,0E0,0E0,0E0,0E0,0E0,0E0,0E0,0E0,0E0,0E0,0E0,0E0,0E0,0E0,0E0,0E0,0E0,0E0,0E0,0E0,0E0,0E0,0E0,0E0,0E0,0E0,0E0,0E0,0E0,0E0,0E0,0E0,0E0,0E0,0E0,0E0,0E0,0E0,0E0,0E0,0E0,0E0,0E0],"parents":[2147483647,0,0,1,1,2,2,3,3,4,4,5,5,6,6,7,7,8,8,9,9,10,10,11,11,12,12,13,13,14,14,15,15,16,16,17,17,18,18,19,19,20,20,21,21,22,22,23,23,24,24,25,25,26,26,27,27,28,28,29,29,30,30,31,31,32,32,33,33,34,34,35,35,36,36,37,37,38,38,39,39,40,40,41,41,42,42,43,43,44,44,45,45,46,46,47,47,49,49,50,50,51,51,52,52,53,53,54,54,56,56,57,57,58,58,59,59,60,60,61,61,62,62],"right_children":[2,4,6,8,10,12,14,16,18,20,22,24,26,28,30,32,34,36,38,40,42,44,46,48,50,52,54,56,58,60,62,64,66,68,70,72,74,76,78,80,82,84,86,88,90,92,94,96,-1,98,100,102,104,106,108,-1,110,112,114,116,118,120,122,-1,-1,-1,-1,-1,-1,-1,-1,-1,-1,-1,-1,-1,-1,-1,-1,-1,-1,-1,-1,-1,-1,-1,-1,-1,-1,-1,-1,-1,-1,-1,-1,-1,-1,-1,-1,-1,-1,-1,-1,-1,-1,-1,-1,-1,-1,-1,-1,-1,-1,-1,-1,-1,-1,-1,-1,-1,-1,-1,-1],"split_conditions":[1E0,3.9897717E1,1E0,1E0,7.0073724E-1,4.0079304E1,9.97551E0,3E0,4.93763E0,1E0,1E0,1E0,1E0,4.93763E0,3E0,1E0,1E0,7.0073724E-1,1E0,6.1E1,1E0,3E0,5E0,3E0,3E0,6.538005E-1,6.1E1,1E0,3E0,7.0073724E-1,6.1E1,1E0,4.93763E0,7.0073724E-1,6.1E1,3E0,3E0,3E0,6.1E1,2.4E1,3E0,1E0,1.0481693E2,1E0,1E0,6.7E1,6.1E1,6E1,1.2707134E-1,6.1E1,3.9897717E1,3E0,3.9E1,3.5E1,7.0073724E-1,3.418129E-2,1.4819754E0,7.0073724E-1,2.6E1,4.0079304E1,6.1E1,3.5E1,3.780492E1,7.0446E-3,9.090938E-2,7.498352E-2,-5.6804623E-2,2.2002256E-2,1.04953244E-1,1.0110587E-1,1.4022581E-1,-1.5502276E-2,6.932684E-2,7.708422E-2,1.2846689E-1,-1.1578693E-1,-6.338797E-2,-5.7187635E-2,3.25319E-2,-9.175469E-2,-1.3586362E-1,-1.19826615E-1,-6.791667E-2,-1.0806382E-2,-9.877184E-2,4.335666E-2,-1.3200532E-1,-1.846563E-2,-1.08583294E-1,9.4785996E-2,-1.2193653E-2,-7.81778E-2,7.352503E-2,-1.3166481E-1,-9.491701E-2,1.1099448E-1,1.2726204E-1,4.3425858E-2,1.1747702E-1,1.1862066E-1,3.79397E-2,3.2189753E-2,1.0715484E-1,1.3270675E-1,1.088715E-1,4.5648813E-2,-5.1829707E-2,4.57959E-2,1.2685454E-1,3.8096827E-2,1.198879E-1,4.145198E-2,1.132852E-1,6.361329E-2,1.2091124E-1,-3.5052042E-2,-1.1542417E-1,-2.5561322E-3,8.8498406E-2,8.6149424E-2,-2.4883924E-2,1.17583826E-1,5.2562457E-2],"split_indices":[14,2,21,21,4,2,2,1,2,16,21,22,22,2,1,22,16,4,16,0,21,1,11,1,1,4,0,9,1,4,0,16,2,4,0,1,1,1,0,0,1,22,13,22,22,0,0,0,0,0,2,1,0,0,4,0,3,4,6,2,0,0,2,0,0,0,0,0,0,0,0,0,0,0,0,0,0,0,0,0,0,0,0,0,0,0,0,0,0,0,0,0,0,0,0,0,0,0,0,0,0,0,0,0,0,0,0,0,0,0,0,0,0,0,0,0,0,0,0,0,0,0,0],"split_type":[0,0,0,0,0,0,0,0,0,0,0,0,0,0,0,0,0,0,0,0,0,0,0,0,0,0,0,0,0,0,0,0,0,0,0,0,0,0,0,0,0,0,0,0,0,0,0,0,0,0,0,0,0,0,0,0,0,0,0,0,0,0,0,0,0,0,0,0,0,0,0,0,0,0,0,0,0,0,0,0,0,0,0,0,0,0,0,0,0,0,0,0,0,0,0,0,0,0,0,0,0,0,0,0,0,0,0,0,0,0,0,0,0,0,0,0,0,0,0,0,0,0,0],"sum_hessian":[2.1602453E4,1.655063E4,5.0518223E3,1.3166317E4,3.3843137E3,3.1856082E3,1.8662139E3,9.020208E3,4.1461094E3,2.3059429E3,1.0783711E3,2.4740374E3,7.1157086E2,3.12385E2,1.5538289E3,5.452826E3,3.5673813E3,5.69686E2,3.576423E3,1.4874084E3,8.185343E2,7.448628E2,3.3350827E2,1.1692751E3,1.3047621E3,3.3410583E2,3.7746506E2,1.418648E2,1.705202E2,9.5838025E2,5.954486E2,2.7406626E3,2.7121638E3,2.4209202E3,1.1464614E3,4.0110913E2,1.6857683E2,2.272444E3,1.3039791E3,1.0256246E3,4.6178387E2,5.633611E2,2.5517317E2,4.4989673E2,2.9496606E2,3.4397587E1,2.991107E2,7.1495056E2,4.5432465E2,8.451074E2,4.5965466E2,2.2125978E2,1.1284606E2,2.6658234E2,1.1088272E2,1.2470596E0,1.4061775E2,1.1252905E2,5.7991146E1,6.692569E2,2.8912335E2,4.2756277E2,1.6788585E2,1.8661198E3,8.745429E2,2.939394E2,2.4182244E3,1.7142561E3,7.0666394E2,8.023037E2,3.4415768E2,2.5059755E2,1.5051158E2,1.1199862E2,5.65782E1,1.3099036E3,9.625405E2,8.8118585E2,4.227932E2,1.4564262E2,8.79982E2,2.6344925E2,1.9833466E2,2.8262173E2,2.8073938E2,1.3295448E0,2.5384363E2,2.3471368E2,2.1518306E2,1.4018356E2,1.547825E2,2.774009E1,6.6574984E0,2.1035518E2,8.875549E1,4.83984E2,2.3096655E2,5.926153E2,2.5249216E2,4.567145E2,2.9401588E0,1.4210287E2,7.915691E1,3.7317677E1,7.552838E1,1.0432195E2,1.6226038E2,7.8482574E1,3.240015E1,1.2877741E0,1.3932997E2,8.1378876E1,3.1150177E1,5.1393156E0,5.285183E1,5.1569073E2,1.5356615E2,2.0666447E2,8.245886E1,1.659287E2,2.616341E2,1.11868576E2,5.601727E1],"tree_param":{"num_deleted":"0","num_feature":"23","num_nodes":"123","size_leaf_vector":"1"}},{"base_weights":[1.4954371E-3,-1.6979274E-1,5.713413E-1,5.00844E-1,-3.295971E-1,8.375969E-1,1.285591E-1,7.6682895E-1,4.4604175E-2,-1.1592489E-1,-8.4543675E-1,9.663979E-1,3.940994E-1,3.157698E-1,-5.838892E-1,1.038298E0,5.2171624E-1,-1.9265252E-1,5.978154E-1,-3.5000694E-1,4.2274705E-1,-1.0293192E0,-4.7783524E-1,1.1669203E0,7.913106E-1,1.8568046E-1,9.148736E-1,9.4074476E-1,1.5428223E-1,-8.83651E-1,-1.5646538E-1,1.2053355E0,8.6816E-1,3.00696E-1,1.0621536E0,-4.898902E-1,2.728672E-1,3.4794647E-1,1.0537049E0,5.077912E-1,-5.1621044E-1,6.3937783E-1,-2.1070537E-1,-1.183052E0,-8.207719E-1,-7.2640276E-1,8.054346E-2,1.1200967E0,1.238208E-1,6.0743326E-1,1.1403799E0,5.776269E-1,-1.5609188E-1,1.1601863E0,6.9839567E-1,1.1504481E0,7.65345E-1,-5.7905722E-2,6.77433E-1,4.3782167E-2,-9.940637E-1,-4.513498E-1,4.8084536E-1,1.2136866E-1,6.890308E-2,7.012876E-2,1.2809825E-1,6.1193417E-4,9.084099E-2,1.2274486E-1,9.211498E-2,-7.304769E-2,5.8374624E-3,5.463736E-4,8.265032E-2,8.25858E-3,9.1632836E-2,1.4121819E-1,9.0626955E-2,7.256646E-2,-1.2300248E-2,-7.51225E-2,9.246212E-4,4.2629134E-2,1.1557317E-1,-5.1491406E-2,4.0727403E-2,-8.890088E-2,-1.21359825E-1,-1.0261574E-1,-3.8605966E-2,1.1762403E-2,-8.837726E-2,3.5209846E-2,-7.701861E-2,1.0639496E-1,1.2428298E-1,4.01822E-2,1.15945935E-1,1.0877334E-1,1.2591477E-1,3.2200836E-2,1.0419192E-1,-4.730502E-2,3.426551E-2,1.2080021E-1,8.432201E-2,4.3164894E-2,1.15838684E-1,3.255384E-2,1.1556522E-1,5.7601877E-2,1.1306435E-1,-2.792096E-2,4.7456983E-2,4.4864234E-2,1.0899683E-1,-8.7984405E-2,4.8586756E-2,-1.1707524E-1,-6.041206E-2,6.1789047E-2,-6.0781807E-2,1.3674699E-2,1.2147238E-1],"categories":[],"categories_nodes":[],"categories_segments":[],"categories_sizes":[],"default_left":[0,0,0,0,0,0,0,0,0,0,0,0,0,0,0,0,0,0,0,0,0,0,0,0,0,0,0,0,0,0,0,0,0,0,0,0,0,0,0,0,0,0,0,0,0,0,0,0,0,0,0,0,0,0,0,0,0,0,0,0,0,0,0,0,0,0,0,0,0,0,0,0,0,0,0,0,0,0,0,0,0,0,0,0,0,0,0,0,0,0,0,0,0,0,0,0,0,0,0,0,0,0,0,0,0,0,0,0,0,0,0,0,0,0,0,0,0,0,0,0,0,0,0,0,0],"id":9,"left_children":[1,3,5,7,9,11,13,15,17,19,21,23,25,27,29,31,33,35,37,39,41,43,45,47,49,51,53,55,57,59,61,63,65,67,69,71,73,75,77,79,81,83,85,87,89,91,93,95,-1,97,99,101,103,105,107,109,111,113,115,117,119,121,123,-1,-1,-1,-1,-1,-1,-1,-1,-1,-1,-1,-1,-1,-1,-1,-1,-1,-1,-1,-1,-1,-1,-1,-1,-1,-1,-1,-1,-1,-1,-1,-1,-1,-1,-1,-1,-1,-1,-1,-1,-1,-1,-1,-1,-1,-1,-1,-1,-1,-1,-1,-1,-1,-1,-1,-1,-1,-1,-1,-1,-1,-1],"loss_changes":[2.057307E3,1.73697E3,5.7418567E2,3.7846106E2,1.4424702E3,1.733794E2,2.4432417E2,1.3055847E2,1.5102083E2,1.167234E3,2.586211E2,8.181323E1,7.431926E1,1.4621611E2,4.870926E1,2.549292E1,1.23593994E2,1.1157665E2,3.8971024E1,9.201937E2,3.8494052E2,8.092041E1,1.7771692E2,2.272705E0,8.025769E1,6.59146E1,9.593018E0,1.0064972E1,1.2809737E2,2.2968262E1,2.9980705E1,1.1843872E0,3.1217834E1,1.32051E2,5.8782043E0,6.492705E1,4.655488E1,3.379425E1,5.15596E0,1.440918E2,6.6756067E2,2.2944745E2,1.3469308E2,1.2107666E1,9.6670105E1,1.1776242E2,9.1567215E1,3.3100586E0,0E0,9.353604E1,1.3440552E0,2.6855057E1,4.178224E1,3.5031128E-1,1.2577358E1,1.9706726E-1,1.0762253E1,9.69547E1,3.0937424E1,1.0543633E1,1.3079254E1,1.8576494E1,1.2607461E1,0E0,0E0,0E0,0E0,0E0,0E0,0E0,0E0,0E0,0E0,0E0,0E0,0E0,0E0,0E0,0E0,0E0,0E0,0E0,0E0,0E0,0E0,0E0,0E0,0E0,0E0,0E0,0E0,0E0,0E0,0E0,0E0,0E0,0E0,0E0,0E0,0E0,0E0,0E0,0E0,0E0,0E0,0E0,0E0,0E0,0E0,0E0,0E0,0E0,0E0,0E0,0E0,0E0,0E0,0E0,0E0,0E0,0E0,0E0,0E0,0E0,0E0],"parents":[2147483647,0,0,1,1,2,2,3,3,4,4,5,5,6,6,7,7,8,8,9,9,10,10,11,11,12,12,13,13,14,14,15,15,16,16,17,17,18,18,19,19,20,20,21,21,22,22,23,23,24,24,25,25,26,26,27,27,28,28,29,29,30,30,31,31,32,32,33,33,34,34,35,35,36,36,37,37,38,38,39,39,40,40,41,41,42,42,43,43,44,44,45,45,46,46,47,47,49,49,50,50,51,51,52,52,53,53,54,54,55,55,56,56,57,57,58,58,59,59,60,60,61,61,62,62],"right_children":[2,4,6,8,10,12,14,16,18,20,22,24,26,28,30,32,34,36,38,40,42,44,46,48,50,52,54,56,58,60,62,64,66,68,70,72,74,76,78,80,82,84,86,88,90,92,94,96,-1,98,100,102,104,106,108,110,112,114,116,118,120,122,124,-1,-1,-1,-1,-1,-1,-1,-1,-1,-1,-1,-1,-1,-1,-1,-1,-1,-1,-1,-1,-1,-1,-1,-1,-1,-1,-1,-1,-1,-1,-1,-1,-1,-1,-1,-1,-1,-1,-1,-1,-1,-1,-1,-1,-1,-1,-1,-1,-1,-1,-1,-1,-1,-1,-1,-1,-1,-1,-1,-1,-1,-1],"split_conditions":[1E0,9.97551E0,1E0,1E0,1E0,4.027042E1,3.9897717E1,1E0,7.0073724E-1,6.1E1,7.0073724E-1,1E0,7.0073724E-1,9.97551E0,3E0,5.321151E0,6.972468E-1,3E0,3E0,2.5E1,3.9897717E1,3E0,6.1E1,3E0,3E0,1E0,1E0,4.93763E0,6.972468E-1,5E0,6.972468E-1,9.54E1,6.9295883E-1,1E0,4.93763E0,6.1E1,1E0,1E0,3.5E1,3.9897717E1,6.972468E-1,7.0073724E-1,1E0,5E0,6.1E1,2.5E1,4.0079304E1,6.1E1,1.238208E-1,7.0073724E-1,6.1E1,3E0,3E0,4.3E1,3E0,1E0,3E0,6.1E1,3E0,9.1E1,7.0840406E-1,5E0,6.1E1,1.2136866E-1,6.890308E-2,7.012876E-2,1.2809825E-1,6.1193417E-4,9.084099E-2,1.2274486E-1,9.211498E-2,-7.304769E-2,5.8374624E-3,5.463736E-4,8.265032E-2,8.25858E-3,9.1632836E-2,1.4121819E-1,9.0626955E-2,7.256646E-2,-1.2300248E-2,-7.51225E-2,9.246212E-4,4.2629134E-2,1.1557317E-1,-5.1491406E-2,4.0727403E-2,-8.890088E-2,-1.21359825E-1,-1.0261574E-1,-3.8605966E-2,1.1762403E-2,-8.837726E-2,3.5209846E-2,-7.701861E-2,1.0639496E-1,1.2428298E-1,4.01822E-2,1.15945935E-1,1.0877334E-1,1.2591477E-1,3.2200836E-2,1.0419192E-1,-4.730502E-2,3.426551E-2,1.2080021E-1,8.432201E-2,4.3164894E-2,1.15838684E-1,3.255384E-2,1.1556522E-1,5.7601877E-2,1.1306435E-1,-2.792096E-2,4.7456983E-2,4.4864234E-2,1.0899683E-1,-8.7984405E-2,4.8586756E-2,-1.1707524E-1,-6.041206E-2,6.1789047E-2,-6.0781807E-2,1.3674699E-2,1.2147238E-1],"split_indices":[14,2,21,21,21,2,2,22,4,0,4,22,4,2,1,2,4,1,1,0,2,1,0,1,1,22,22,2,4,11,4,12,4,16,2,0,16,16,0,2,4,4,16,11,0,0,2,0,0,4,0,1,1,11,1,9,1,0,1,6,4,11,0,0,0,0,0,0,0,0,0,0,0,0,0,0,0,0,0,0,0,0,0,0,0,0,0,0,0,0,0,0,0,0,0,0,0,0,0,0,0,0,0,0,0,0,0,0,0,0,0,0,0,0,0,0,0,0,0,0,0,0,0,0,0],"split_type":[0,0,0,0,0,0,0,0,0,0,0,0,0,0,0,0,0,0,0,0,0,0,0,0,0,0,0,0,0,0,0,0,0,0,0,0,0,0,0,0,0,0,0,0,0,0,0,0,0,0,0,0,0,0,0,0,0,0,0,0,0,0,0,0,0,0,0,0,0,0,0,0,0,0,0,0,0,0,0,0,0,0,0,0,0,0,0,0,0,0,0,0,0,0,0,0,0,0,0,0,0,0,0,0,0,0,0,0,0,0,0,0,0,0,0,0,0,0,0,0,0,0,0,0,0],"sum_hessian":[2.1075273E4,1.6204973E4,4.8703003E3,3.1179622E3,1.3087011E4,3.0408638E3,1.8294363E3,1.9692317E3,1.1487305E3,9.254725E3,3.8322866E3,2.355576E3,6.852879E2,1.4491885E3,3.802478E2,9.3284467E2,1.0363871E3,8.0439844E2,3.4433203E2,6.451534E3,2.80319E3,2.5532793E3,1.2790073E3,1.095391E3,1.260185E3,4.903868E2,1.9490108E2,2.9657693E2,1.1526116E3,2.2287393E2,1.5737386E2,4.6764124E2,4.6520343E2,7.3667053E2,2.9971652E2,4.9090176E2,3.1349664E2,2.235626E2,1.2076944E2,1.0468009E3,5.4047334E3,2.0888325E3,7.1435736E2,1.4671113E3,1.0861681E3,8.848203E2,3.9418695E2,6.712244E2,4.2416656E2,8.271904E2,4.3299457E2,2.2810483E2,2.6228198E2,8.9322014E1,1.0557906E2,1.3254756E2,1.6402937E2,8.2064886E2,3.319627E2,2.3774942E1,1.99099E2,1.0779074E2,4.9583115E1,4.5886847E2,8.77277E0,3.332107E2,1.3199272E2,4.9684525E2,2.3982527E2,1.344266E2,1.6528992E2,3.4095386E2,1.499479E2,2.1207523E2,1.01421425E2,1.5318864E2,7.037395E1,3.2695244E1,8.8074196E1,7.779501E2,2.688509E2,3.7341682E3,1.6705651E3,1.4799283E3,6.0890424E2,4.7881903E2,2.3553831E2,1.4089952E2,1.3262118E3,7.367299E2,3.4943817E2,1.3908951E2,7.457308E2,2.992513E2,9.4935646E1,4.6717374E2,2.0405066E2,6.0396246E2,2.2322795E2,3.0704736E2,1.25947205E2,1.4820393E2,7.9900894E1,1.6039868E2,1.01883316E2,7.5171E1,1.4151014E1,6.805353E1,3.752553E1,1.2293807E0,1.3131819E2,1.09733665E2,5.4295704E1,5.8004865E2,2.406002E2,2.1487903E2,1.1708368E2,7.375492E0,1.639945E1,1.3563739E2,6.3461613E1,1.3383612E1,9.440713E1,3.4563454E1,1.5019659E1],"tree_param":{"num_deleted":"0","num_feature":"23","num_nodes":"125","size_leaf_vector":"1"}},{"base_weights":[1.649629E-3,1.5209197E-1,-5.733626E-1,3.53899E-1,-2.6426646E-1,-7.8254133E-1,5.7540115E-2,1.24422E-1,7.189767E-1,-4.66501E-1,2.9054236E-1,-9.9675375E-1,-4.9283904E-1,3.7809005E-1,-5.399083E-1,-5.363117E-2,7.9344636E-1,9.7833544E-1,4.796481E-1,3.685307E-1,-6.046165E-1,9.1553307E-1,1.4515978E-1,-4.3898886E-1,-1.0647272E0,-2.4994983E-1,-1.081626E0,1.7707698E-1,8.772664E-1,-7.612672E-1,-1.0268898E-2,-3.0944324E-1,4.5277372E-1,1.0877132E0,5.6214046E-1,8.705883E-1,1.256368E-1,2.7725777E-1,9.508048E-1,1.4702143E-1,8.877381E-1,-8.288345E-1,-1.6107078E-1,1.1153222E0,7.375961E-1,-9.5416024E-2,5.535845E-1,-1.1079458E0,-9.099311E-2,-1.182874E0,-7.980667E-1,-5.525569E-1,3.5536408E-1,-1.248245E0,-7.910662E-1,6.920115E-1,-1.477343E-1,1.1322683E0,6.615607E-1,1.3391934E-1,-9.122519E-1,-3.2029793E-1,6.494622E-1,4.4774166E-3,-6.9002E-2,2.2083705E-2,1.0157678E-1,1.02938615E-1,1.2213685E-1,1.1770524E-1,3.6635667E-2,7.320263E-2,1.2056545E-1,1.0146092E-2,1.0558523E-1,7.8361616E-2,1.2272681E-1,-9.3520405E-3,7.2563134E-2,7.300239E-2,1.2795554E-1,-1.0362846E-1,-4.784049E-2,-5.1805433E-2,2.989086E-2,8.0520034E-2,1.1459148E-1,5.6537975E-2,1.174611E-1,-3.1131525E-2,4.249736E-2,3.7025295E-2,1.0654118E-1,-1.1740156E-1,6.9426335E-2,2.1467244E-2,-9.67101E-2,-9.5782556E-2,-1.3320136E-1,-1.0333603E-1,-3.344139E-2,-8.024672E-2,6.1867796E-3,8.749292E-2,-1.3493142E-2,-7.6866664E-2,-1.2851998E-1,-1.13956146E-1,-1.4394122E-2,1.0425474E-1,4.2131864E-2,-4.1858293E-2,5.279699E-2,-5.1037585E-3,1.15104035E-1,4.4704612E-2,1.1831131E-1,-3.4026444E-2,7.537168E-2,-1.09350584E-1,-5.2187413E-2,7.7520564E-2,-5.0486602E-2,7.774484E-2,-8.814446E-2],"categories":[],"categories_nodes":[],"categories_segments":[],"categories_sizes":[],"default_left":[0,0,0,0,0,0,0,0,0,0,0,0,0,0,0,0,0,0,0,0,0,0,0,0,0,0,0,0,0,0,0,0,0,0,0,0,0,0,0,0,0,0,0,0,0,0,0,0,0,0,0,0,0,0,0,0,0,0,0,0,0,0,0,0,0,0,0,0,0,0,0,0,0,0,0,0,0,0,0,0,0,0,0,0,0,0,0,0,0,0,0,0,0,0,0,0,0,0,0,0,0,0,0,0,0,0,0,0,0,0,0,0,0,0,0,0,0,0,0,0,0,0,0,0,0],"id":10,"left_children":[1,3,5,7,9,11,13,15,17,19,21,23,25,27,29,31,33,35,37,39,41,43,45,47,49,51,53,55,57,59,61,63,65,67,69,71,-1,73,75,77,79,81,83,85,87,89,91,93,95,97,99,101,103,105,107,109,111,113,115,117,119,121,123,-1,-1,-1,-1,-1,-1,-1,-1,-1,-1,-1,-1,-1,-1,-1,-1,-1,-1,-1,-1,-1,-1,-1,-1,-1,-1,-1,-1,-1,-1,-1,-1,-1,-1,-1,-1,-1,-1,-1,-1,-1,-1,-1,-1,-1,-1,-1,-1,-1,-1,-1,-1,-1,-1,-1,-1,-1,-1,-1,-1,-1,-1],"loss_changes":[1.7814486E3,1.3715955E3,5.6363855E2,9.2098914E2,5.9809204E2,1.9854553E2,2.0402968E2,8.0437427E2,2.6291724E2,4.5070935E2,1.2928055E2,6.940271E1,1.9499261E2,6.9406E1,4.3611076E1,6.911075E2,9.599762E1,5.988257E1,2.103623E2,6.3698692E1,3.332306E2,8.725922E0,1.13704605E2,4.6898884E1,5.0787354E1,1.7749326E2,1.8302887E1,8.29748E1,1.0184235E1,3.558412E1,2.2845116E1,4.7782736E2,2.3358011E2,3.604065E0,9.549054E1,6.737537E1,0E0,2.115696E2,2.969696E1,5.437887E1,9.309708E0,1.6134656E2,1.8517647E2,2.5920105E-1,1.025029E1,8.2010345E1,3.985211E1,9.030739E0,3.6064507E1,3.684546E1,5.498883E1,9.919905E1,8.245387E1,3.469574E0,3.3201103E1,1.7762741E1,5.5976974E1,2.0508423E0,1.1787613E1,1.1641398E1,1.5323822E1,1.5750631E1,7.682678E0,0E0,0E0,0E0,0E0,0E0,0E0,0E0,0E0,0E0,0E0,0E0,0E0,0E0,0E0,0E0,0E0,0E0,0E0,0E0,0E0,0E0,0E0,0E0,0E0,0E0,0E0,0E0,0E0,0E0,0E0,0E0,0E0,0E0,0E0,0E0,0E0,0E0,0E0,0E0,0E0,0E0,0E0,0E0,0E0,0E0,0E0,0E0,0E0,0E0,0E0,0E0,0E0,0E0,0E0,0E0,0E0,0E0,0E0,0E0,0E0,0E0,0E0],"parents":[2147483647,0,0,1,1,2,2,3,3,4,4,5,5,6,6,7,7,8,8,9,9,10,10,11,11,12,12,13,13,14,14,15,15,16,16,17,17,18,18,19,19,20,20,21,21,22,22,23,23,24,24,25,25,26,26,27,27,28,28,29,29,30,30,31,31,32,32,33,33,34,34,35,35,37,37,38,38,39,39,40,40,41,41,42,42,43,43,44,44,45,45,46,46,47,47,48,48,49,49,50,50,51,51,52,52,53,53,54,54,55,55,56,56,57,57,58,58,59,59,60,60,61,61,62,62],"right_children":[2,4,6,8,10,12,14,16,18,20,22,24,26,28,30,32,34,36,38,40,42,44,46,48,50,52,54,56,58,60,62,64,66,68,70,72,-1,74,76,78,80,82,84,86,88,90,92,94,96,98,100,102,104,106,108,110,112,114,116,118,120,122,124,-1,-1,-1,-1,-1,-1,-1,-1,-1,-1,-1,-1,-1,-1,-1,-1,-1,-1,-1,-1,-1,-1,-1,-1,-1,-1,-1,-1,-1,-1,-1,-1,-1,-1,-1,-1,-1,-1,-1,-1,-1,-1,-1,-1,-1,-1,-1,-1,-1,-1,-1,-1,-1,-1,-1,-1,-1,-1,-1,-1,-1,-1],"split_conditions":[3.9897717E1,1E0,1E0,3E0,1E0,3E0,1E0,1E0,1E0,4.93763E0,9.602724E0,5E0,1E0,6.1E1,6.1E1,1E0,1E0,7.0073724E-1,6.1E1,1E0,7.0073724E-1,4.93763E0,3E0,1.07E2,6.1E1,1E0,6.8921965E-1,3.5E1,1E0,2.5E1,7.0073724E-1,1E0,7.0073724E-1,7.0073724E-1,9.97551E0,6.1E1,1.256368E-1,1E0,6.1099136E-1,6.2E1,6.1E1,1E0,3E0,1.25E1,6.2E1,7.0073724E-1,6.1E1,7.8E1,1E0,3.5E1,6.972468E-1,7.1625215E-1,1E0,4E0,1E0,2.5E1,7.0073724E-1,2.374653E0,7.0073724E-1,3E0,7.1625215E-1,6E0,4.9433315E1,4.4774166E-3,-6.9002E-2,2.2083705E-2,1.0157678E-1,1.02938615E-1,1.2213685E-1,1.1770524E-1,3.6635667E-2,7.320263E-2,1.2056545E-1,1.0146092E-2,1.0558523E-1,7.8361616E-2,1.2272681E-1,-9.3520405E-3,7.2563134E-2,7.300239E-2,1.2795554E-1,-1.0362846E-1,-4.784049E-2,-5.1805433E-2,2.989086E-2,8.0520034E-2,1.1459148E-1,5.6537975E-2,1.174611E-1,-3.1131525E-2,4.249736E-2,3.7025295E-2,1.0654118E-1,-1.1740156E-1,6.9426335E-2,2.1467244E-2,-9.67101E-2,-9.5782556E-2,-1.3320136E-1,-1.0333603E-1,-3.344139E-2,-8.024672E-2,6.1867796E-3,8.749292E-2,-1.3493142E-2,-7.6866664E-2,-1.2851998E-1,-1.13956146E-1,-1.4394122E-2,1.0425474E-1,4.2131864E-2,-4.1858293E-2,5.279699E-2,-5.1037585E-3,1.15104035E-1,4.4704612E-2,1.1831131E-1,-3.4026444E-2,7.537168E-2,-1.09350584E-1,-5.2187413E-2,7.7520564E-2,-5.0486602E-2,7.774484E-2,-8.814446E-2],"split_indices":[2,21,14,1,14,1,21,14,22,2,2,11,21,0,0,16,22,4,0,16,4,2,1,6,0,16,4,0,22,0,4,22,4,4,2,0,0,14,4,0,0,16,1,12,0,4,0,0,21,0,4,4,22,11,16,0,4,3,4,1,4,11,2,0,0,0,0,0,0,0,0,0,0,0,0,0,0,0,0,0,0,0,0,0,0,0,0,0,0,0,0,0,0,0,0,0,0,0,0,0,0,0,0,0,0,0,0,0,0,0,0,0,0,0,0,0,0,0,0,0,0,0,0,0,0],"split_type":[0,0,0,0,0,0,0,0,0,0,0,0,0,0,0,0,0,0,0,0,0,0,0,0,0,0,0,0,0,0,0,0,0,0,0,0,0,0,0,0,0,0,0,0,0,0,0,0,0,0,0,0,0,0,0,0,0,0,0,0,0,0,0,0,0,0,0,0,0,0,0,0,0,0,0,0,0,0,0,0,0,0,0,0,0,0,0,0,0,0,0,0,0,0,0,0,0,0,0,0,0,0,0,0,0,0,0,0,0,0,0,0,0,0,0,0,0,0,0,0,0,0,0,0,0],"sum_hessian":[2.05913E4,1.6321729E4,4.2695723E3,1.0993419E4,5.3283096E3,3.2062761E3,1.0632963E3,6.7511733E3,4.242246E3,3.905036E3,1.4232738E3,1.841896E3,1.36438E3,6.9224963E2,3.7104663E2,5.332823E3,1.41835E3,2.0344445E3,2.2078015E3,5.53992E2,3.351044E3,2.675963E2,1.1556775E3,2.0089383E2,1.6410022E3,9.669244E2,3.974557E2,4.9448178E2,1.9776785E2,2.6137115E2,1.0967547E2,3.5433018E3,1.7895215E3,6.2258984E2,7.9576013E2,1.4692073E3,5.652372E2,1.5455028E3,6.6229865E2,3.8922168E2,1.6477032E2,2.2252722E3,1.1257717E3,1.2357603E2,1.440203E2,7.2776556E2,4.2791187E2,6.799751E1,1.3289632E2,1.1347869E3,5.0621527E2,6.447098E2,3.2221457E2,2.5050815E2,1.4694754E2,1.9082687E2,3.036549E2,8.868157E1,1.0908629E2,3.773772E1,2.2363342E2,7.4962616E1,3.471286E1,1.8356626E3,1.7076392E3,1.2683795E3,5.2114197E2,4.3949606E2,1.8309381E2,1.9096648E2,6.047937E2,1.0416372E3,4.2757007E2,1.2617466E3,2.8375626E2,4.1510315E2,2.4719551E2,2.755199E2,1.1370177E2,1.19523094E2,4.524724E1,1.3965654E3,8.287068E2,6.337787E2,4.91993E2,1.3548849E1,1.10027176E2,1.04954254E2,3.906604E1,5.146496E2,2.1311601E2,3.163292E2,1.1158266E2,6.5929085E1,2.0684242E0,9.90824E1,3.381392E1,4.5524884E2,6.79538E2,3.349877E2,1.712276E2,4.5808347E2,1.8662631E2,1.5605692E2,1.6615767E2,1.9482014E1,2.3102612E2,9.501714E1,5.1930397E1,8.190801E1,1.0891886E2,2.1703809E2,8.661681E1,1.3580289E0,8.732354E1,7.8610794E1,3.0475496E1,2.1635906E1,1.6101812E1,1.5149333E2,7.21401E1,1.0347129E1,6.4615486E1,3.24889E1,2.223959E0],"tree_param":{"num_deleted":"0","num_feature":"23","num_nodes":"125","size_leaf_vector":"1"}},{"base_weights":[1.644454E-3,5.9043235E-1,-1.3414645E-1,8.113822E-1,2.1123458E-1,-2.8966576E-1,3.869835E-1,1.0592018E0,6.024177E-1,5.7020273E-2,8.5362524E-1,-5.0406224E-1,1.0755517E-1,6.5762925E-1,-2.4581537E-2,1.1247538E0,8.6858135E-1,4.1587645E-1,1.04439E0,-1.6152062E-1,5.56681E-1,6.9693035E-1,1.1357126E0,-6.890937E-1,-8.837006E-2,3.4999406E-1,-4.3390152E-1,9.5441747E-1,4.1672114E-1,7.909412E-1,-1.3332479E-1,1.0641682E0,1.22058295E-1,1.1186215E0,6.5194374E-1,1.9783294E-1,9.8818886E-1,1.140546E0,7.5787985E-1,3.1600225E-1,-4.819882E-1,3.0260736E-1,9.6596956E-1,1.0053312E0,4.820003E-1,1.14497475E-1,4.4120394E-2,-4.8798244E-3,-8.2481384E-1,1.4343591E-1,-7.124027E-1,7.3932715E-2,7.963055E-1,-7.51829E-1,-2.3056742E-2,1.0743091E0,6.707236E-1,2.0473908E-1,9.3640876E-1,9.697838E-1,5.800586E-2,-4.1041687E-1,4.3824333E-1,9.741583E-2,1.2528546E-1,1.1391827E-1,-1.47065865E-2,4.1004635E-2,1.1966653E-1,-5.610001E-4,1.02210775E-1,1.2331022E-1,8.172085E-2,3.4909923E-2,1.1449192E-1,1.1672898E-1,3.7432652E-2,7.2821015E-3,8.5157536E-2,-7.093497E-2,3.0912636E-3,5.117556E-3,8.744667E-2,7.747512E-2,1.1982192E-1,1.02774166E-1,1.976417E-2,2.5840685E-2,9.926393E-2,2.4131967E-2,-7.0374094E-2,-9.818316E-2,-5.0216027E-2,5.2129652E-2,-2.4324877E-2,-1.0545744E-1,-3.1798963E-2,4.861116E-2,-3.1354878E-2,9.788748E-2,3.2155957E-2,-9.858065E-2,-3.3976234E-2,2.2662817E-2,-8.146485E-2,9.9975824E-2,1.1885376E-1,4.5888066E-2,1.0607063E-1,-3.9262814E-3,8.542155E-2,1.0776285E-1,5.596697E-2,7.48045E-2,1.2284994E-1,-4.498894E-2,7.257701E-2,6.914135E-3,-5.9724685E-2,2.4962036E-2,9.2579655E-2],"categories":[],"categories_nodes":[],"categories_segments":[],"categories_sizes":[],"default_left":[0,0,0,0,0,0,0,0,0,0,0,0,0,0,0,0,0,0,0,0,0,0,0,0,0,0,0,0,0,0,0,0,0,0,0,0,0,0,0,0,0,0,0,0,0,0,0,0,0,0,0,0,0,0,0,0,0,0,0,0,0,0,0,0,0,0,0,0,0,0,0,0,0,0,0,0,0,0,0,0,0,0,0,0,0,0,0,0,0,0,0,0,0,0,0,0,0,0,0,0,0,0,0,0,0,0,0,0,0,0,0,0,0,0,0,0,0,0,0,0,0],"id":11,"left_children":[1,3,5,7,9,11,13,15,17,19,21,23,25,27,29,31,33,35,37,39,41,43,45,47,49,51,53,55,57,59,61,63,-1,65,67,69,71,73,75,77,79,81,83,85,87,-1,-1,89,91,93,95,97,99,101,103,105,107,109,111,113,115,117,119,-1,-1,-1,-1,-1,-1,-1,-1,-1,-1,-1,-1,-1,-1,-1,-1,-1,-1,-1,-1,-1,-1,-1,-1,-1,-1,-1,-1,-1,-1,-1,-1,-1,-1,-1,-1,-1,-1,-1,-1,-1,-1,-1,-1,-1,-1,-1,-1,-1,-1,-1,-1,-1,-1,-1,-1,-1,-1],"loss_changes":[1.607454E3,3.1551343E2,1.324188E3,1.2262854E2,1.375064E2,1.0716582E3,4.183205E2,1.2613281E1,1.06228E2,1.22476036E2,1.1086868E1,6.285239E2,5.7927325E2,1.615882E2,1.3231248E2,3.380188E0,1.4584E1,1.1353854E2,9.695679E0,1.1959589E2,3.519606E1,1.1138588E1,1.0193634E-1,5.251279E2,3.6439206E2,3.7545993E2,1.7825983E2,3.3778015E1,1.3776617E2,2.2953651E1,2.0864328E2,7.2976685E0,0E0,3.5463867E0,1.978344E1,1.1088779E2,9.510956E0,5.868225E-1,1.5155987E1,4.0841064E1,5.453488E1,3.0439697E1,4.856262E0,1.0837555E0,1.1761244E1,0E0,0E0,1.6139838E2,2.3857935E2,2.6854745E2,9.1741394E1,3.0107553E2,1.0062982E2,7.38472E1,1.1807311E2,4.8692017E0,2.4626022E1,1.4119412E2,1.8685059E1,7.1724396E0,1.2364958E1,7.951303E1,3.9335907E1,0E0,0E0,0E0,0E0,0E0,0E0,0E0,0E0,0E0,0E0,0E0,0E0,0E0,0E0,0E0,0E0,0E0,0E0,0E0,0E0,0E0,0E0,0E0,0E0,0E0,0E0,0E0,0E0,0E0,0E0,0E0,0E0,0E0,0E0,0E0,0E0,0E0,0E0,0E0,0E0,0E0,0E0,0E0,0E0,0E0,0E0,0E0,0E0,0E0,0E0,0E0,0E0,0E0,0E0,0E0,0E0,0E0,0E0],"parents":[2147483647,0,0,1,1,2,2,3,3,4,4,5,5,6,6,7,7,8,8,9,9,10,10,11,11,12,12,13,13,14,14,15,15,16,16,17,17,18,18,19,19,20,20,21,21,22,22,23,23,24,24,25,25,26,26,27,27,28,28,29,29,30,30,31,31,33,33,34,34,35,35,36,36,37,37,38,38,39,39,40,40,41,41,42,42,43,43,44,44,47,47,48,48,49,49,50,50,51,51,52,52,53,53,54,54,55,55,56,56,57,57,58,58,59,59,60,60,61,61,62,62],"right_children":[2,4,6,8,10,12,14,16,18,20,22,24,26,28,30,32,34,36,38,40,42,44,46,48,50,52,54,56,58,60,62,64,-1,66,68,70,72,74,76,78,80,82,84,86,88,-1,-1,90,92,94,96,98,100,102,104,106,108,110,112,114,116,118,120,-1,-1,-1,-1,-1,-1,-1,-1,-1,-1,-1,-1,-1,-1,-1,-1,-1,-1,-1,-1,-1,-1,-1,-1,-1,-1,-1,-1,-1,-1,-1,-1,-1,-1,-1,-1,-1,-1,-1,-1,-1,-1,-1,-1,-1,-1,-1,-1,-1,-1,-1,-1,-1,-1,-1,-1,-1,-1],"split_conditions":[9.97551E0,1E0,1E0,4.93763E0,1E0,1E0,1E0,1E0,6.1E1,6.1E1,3E0,6.1E1,1E0,1E0,2.5E1,3E0,1E0,6.972468E-1,1E0,3.5E1,3E0,4.93763E0,4.9E1,2.5E1,1E0,3E0,3E0,4.0079304E1,6.1E1,4.065418E1,6.1E1,1E0,1.22058295E-1,9.54E1,6.1E1,1E0,3.5E1,7.916485E-3,1E0,1E0,7.0073724E-1,7.0073724E-1,5.6450194E-1,1.94E2,6E1,1.14497475E-1,4.4120394E-2,1E0,6.972468E-1,1E0,3E0,1E0,3.9702538E1,7.0073724E-1,4.0079304E1,3E0,3E0,7.0073724E-1,4.065418E1,5.21E1,3E0,3.5E1,7.0073724E-1,9.741583E-2,1.2528546E-1,1.1391827E-1,-1.47065865E-2,4.1004635E-2,1.1966653E-1,-5.610001E-4,1.02210775E-1,1.2331022E-1,8.172085E-2,3.4909923E-2,1.1449192E-1,1.1672898E-1,3.7432652E-2,7.2821015E-3,8.5157536E-2,-7.093497E-2,3.0912636E-3,5.117556E-3,8.744667E-2,7.747512E-2,1.1982192E-1,1.02774166E-1,1.976417E-2,2.5840685E-2,9.926393E-2,2.4131967E-2,-7.0374094E-2,-9.818316E-2,-5.0216027E-2,5.2129652E-2,-2.4324877E-2,-1.0545744E-1,-3.1798963E-2,4.861116E-2,-3.1354878E-2,9.788748E-2,3.2155957E-2,-9.858065E-2,-3.3976234E-2,2.2662817E-2,-8.146485E-2,9.9975824E-2,1.1885376E-1,4.5888066E-2,1.0607063E-1,-3.9262814E-3,8.542155E-2,1.0776285E-1,5.596697E-2,7.48045E-2,1.2284994E-1,-4.498894E-2,7.257701E-2,6.914135E-3,-5.9724685E-2,2.4962036E-2,9.2579655E-2],"split_indices":[2,21,14,2,14,16,21,15,0,0,1,0,21,22,0,1,22,4,15,0,1,2,11,0,21,1,1,2,0,2,0,14,0,12,0,14,0,4,22,16,4,4,4,8,0,0,0,21,4,22,1,22,2,4,2,1,1,4,2,12,1,0,4,0,0,0,0,0,0,0,0,0,0,0,0,0,0,0,0,0,0,0,0,0,0,0,0,0,0,0,0,0,0,0,0,0,0,0,0,0,0,0,0,0,0,0,0,0,0,0,0,0,0,0,0,0,0,0,0,0,0],"split_type":[0,0,0,0,0,0,0,0,0,0,0,0,0,0,0,0,0,0,0,0,0,0,0,0,0,0,0,0,0,0,0,0,0,0,0,0,0,0,0,0,0,0,0,0,0,0,0,0,0,0,0,0,0,0,0,0,0,0,0,0,0,0,0,0,0,0,0,0,0,0,0,0,0,0,0,0,0,0,0,0,0,0,0,0,0,0,0,0,0,0,0,0,0,0,0,0,0,0,0,0,0,0,0,0,0,0,0,0,0,0,0,0,0,0,0,0,0,0,0,0,0],"sum_hessian":[2.0103236E4,3.7668533E3,1.6336384E4,2.3793315E3,1.3875216E3,1.2582015E4,3.7543696E3,1.0866088E3,1.2927228E3,1.11979E3,2.6773154E2,8.171338E3,4.4106763E3,2.2645806E3,1.4897891E3,8.0490955E2,2.8169928E2,9.104108E2,3.8231198E2,7.79521E2,3.4026904E2,1.7435233E2,9.337922E1,5.6539937E3,2.5173445E3,3.046811E3,1.3638652E3,1.0132899E3,1.2512908E3,1.7454099E2,1.315248E3,5.0055206E2,3.0435745E2,1.2883554E2,1.5286374E2,6.60221E2,2.5018982E2,2.8401328E2,9.829872E1,3.1305597E2,4.6646503E2,2.1101614E2,1.292529E2,7.009553E1,1.04256805E2,9.1510216E1,1.8690015E0,9.360524E2,4.717941E3,1.8360771E3,6.8126733E2,1.8831646E3,1.1636464E3,7.6841E2,5.9545526E2,7.103167E2,3.0297318E2,8.8975226E2,3.6153854E2,1.4004552E2,3.4495472E1,8.8600244E2,4.2924564E2,3.4306235E2,1.5748972E2,1.268744E2,1.961143E0,1.0706956E2,4.579418E1,5.303228E2,1.2989816E2,1.0030312E2,1.498867E2,2.0049005E0,2.8200836E2,4.6558357E1,5.174036E1,2.1607939E2,9.6976585E1,3.229312E2,1.435338E2,1.4732892E2,6.3687233E1,7.326632E1,5.598658E1,6.793805E1,2.1574821E0,7.355523E1,3.0701574E1,6.926838E2,2.433686E2,3.172175E3,1.545766E3,9.284582E2,9.0761896E2,3.6389648E2,3.1737082E2,9.123783E2,9.707863E2,8.396767E2,3.239697E2,4.8922726E2,2.7918274E2,4.5321524E2,1.4224004E2,4.357066E2,2.746101E2,1.9773692E2,1.0523627E2,6.4745087E2,2.4230138E2,2.6161307E2,9.992546E1,7.75073E1,6.2538216E1,1.9778444E1,1.4717027E1,2.4857808E2,6.374244E2,3.105955E2,1.18650154E2],"tree_param":{"num_deleted":"0","num_feature":"23","num_nodes":"121","size_leaf_vector":"1"}},{"base_weights":[1.8440407E-3,1.393393E-1,-5.2466124E-1,-3.6069736E-2,5.493796E-1,-7.102228E-1,2.6256485E-2,3.7213936E-1,-3.052796E-1,7.3239887E-1,1.8290928E-1,-9.2075706E-1,-4.320303E-1,3.068955E-1,-4.9519357E-1,2.3322463E-1,8.67391E-1,-5.447824E-1,5.4892875E-2,5.887258E-1,1.0979472E0,-8.6195864E-2,5.716568E-1,-1.0619869E0,-6.542584E-1,-2.1413413E-1,-9.978682E-1,7.627802E-2,7.2104603E-1,-7.904563E-1,-9.502657E-2,4.317185E-1,-2.343562E-1,1.029681E0,6.408443E-1,2.8385836E-1,-6.5343535E-1,3.0866277E-1,-4.4965553E-1,8.501568E-1,3.4531683E-1,1.0298656E0,1.2931584E0,-3.0757892E-1,4.7095954E-1,3.620227E-1,1.0198245E0,-6.1784977E-1,-1.1179173E0,-4.729278E-1,-1.1619058E0,1.6632321E-1,-6.009123E-1,-1.181952E0,-6.950753E-1,-1.4464152E-1,6.153174E-1,1.0271385E0,4.9191564E-1,8.548484E-2,-9.002753E-1,-3.476645E-1,4.5422816E-1,2.3876E-2,9.090364E-2,6.1988194E-2,-3.858789E-2,1.1792847E-1,9.1440655E-2,4.445764E-2,9.7607404E-2,6.305732E-2,-2.415022E-2,-8.567642E-2,-2.1769537E-2,6.672871E-2,-1.5133119E-3,2.719977E-2,-6.2225528E-2,6.961221E-2,1.1252095E-1,1.766166E-2,1.02314785E-1,1.1996962E-1,8.803446E-2,7.37546E-2,1.3099618E-1,3.0838294E-2,-5.80347E-2,1.0863709E-1,3.271721E-2,1.9304695E-2,9.708649E-2,1.7151569E-1,9.063424E-2,-1.1872595E-1,-3.2771364E-2,-1.21243075E-1,-9.604393E-2,-8.864137E-3,-9.094423E-2,-2.2412867E-3,-1.1847196E-1,-1.0090896E-2,8.7721564E-2,-8.507306E-2,-8.771062E-3,-6.807213E-2,-1.2219294E-1,-1.0554806E-1,-5.5704582E-3,3.8957562E-2,-4.8479043E-2,1.0053035E-1,3.0608205E-2,5.145331E-2,1.0632014E-1,3.0618856E-2,1.0902732E-1,-7.868745E-2,4.8225645E-2,-1.0807598E-1,-5.3563457E-2,5.853612E-2,-4.8772145E-2,1.90729E-2,1.0718089E-1],"categories":[],"categories_nodes":[],"categories_segments":[],"categories_sizes":[],"default_left":[0,0,0,0,0,0,0,0,0,0,0,0,0,0,0,0,0,0,0,0,0,0,0,0,0,0,0,0,0,0,0,0,0,0,0,0,0,0,0,0,0,0,0,0,0,0,0,0,0,0,0,0,0,0,0,0,0,0,0,0,0,0,0,0,0,0,0,0,0,0,0,0,0,0,0,0,0,0,0,0,0,0,0,0,0,0,0,0,0,0,0,0,0,0,0,0,0,0,0,0,0,0,0,0,0,0,0,0,0,0,0,0,0,0,0,0,0,0,0,0,0,0,0,0,0,0,0],"id":12,"left_children":[1,3,5,7,9,11,13,15,17,19,21,23,25,27,29,31,33,35,37,39,41,43,45,47,49,51,53,55,57,59,61,63,65,67,69,71,73,75,77,79,81,83,85,87,89,91,93,95,97,99,101,103,105,107,109,111,113,115,117,119,121,123,125,-1,-1,-1,-1,-1,-1,-1,-1,-1,-1,-1,-1,-1,-1,-1,-1,-1,-1,-1,-1,-1,-1,-1,-1,-1,-1,-1,-1,-1,-1,-1,-1,-1,-1,-1,-1,-1,-1,-1,-1,-1,-1,-1,-1,-1,-1,-1,-1,-1,-1,-1,-1,-1,-1,-1,-1,-1,-1,-1,-1,-1,-1,-1,-1],"loss_changes":[1.4223784E3,1.1205851E3,4.1594702E2,1.1993557E3,3.1295117E2,1.7785803E2,1.503072E2,2.981891E2,5.67334E2,1.6283948E2,1.6283875E2,6.44762E1,1.616679E2,6.3715828E1,4.2388573E1,3.1459625E2,3.4257263E1,3.5582275E2,3.365592E2,1.4204108E2,1.0325439E1,1.1367378E2,5.9447433E1,2.7383545E1,5.4900757E1,1.3977855E2,1.9510101E1,5.1293953E1,1.6235703E1,1.9957184E1,2.148928E1,2.1890176E2,1.3102768E2,8.435486E0,2.5820145E1,8.368484E1,3.092373E2,2.0308171E2,1.097408E2,4.487915E1,1.3246352E2,1.5582092E1,1.1148071E0,1.10950485E2,2.2839432E1,4.459869E1,1.4412598E1,2.086293E1,1.3756836E1,7.4655014E1,4.076996E0,9.1142334E1,6.0299637E1,3.6851807E0,3.2280464E1,5.5757027E1,1.4789635E1,1.3249817E0,1.5049915E1,8.66472E0,1.1512665E1,1.4118998E1,7.7474957E0,0E0,0E0,0E0,0E0,0E0,0E0,0E0,0E0,0E0,0E0,0E0,0E0,0E0,0E0,0E0,0E0,0E0,0E0,0E0,0E0,0E0,0E0,0E0,0E0,0E0,0E0,0E0,0E0,0E0,0E0,0E0,0E0,0E0,0E0,0E0,0E0,0E0,0E0,0E0,0E0,0E0,0E0,0E0,0E0,0E0,0E0,0E0,0E0,0E0,0E0,0E0,0E0,0E0,0E0,0E0,0E0,0E0,0E0,0E0,0E0,0E0,0E0,0E0,0E0],"parents":[2147483647,0,0,1,1,2,2,3,3,4,4,5,5,6,6,7,7,8,8,9,9,10,10,11,11,12,12,13,13,14,14,15,15,16,16,17,17,18,18,19,19,20,20,21,21,22,22,23,23,24,24,25,25,26,26,27,27,28,28,29,29,30,30,31,31,32,32,33,33,34,34,35,35,36,36,37,37,38,38,39,39,40,40,41,41,42,42,43,43,44,44,45,45,46,46,47,47,48,48,49,49,50,50,51,51,52,52,53,53,54,54,55,55,56,56,57,57,58,58,59,59,60,60,61,61,62,62],"right_children":[2,4,6,8,10,12,14,16,18,20,22,24,26,28,30,32,34,36,38,40,42,44,46,48,50,52,54,56,58,60,62,64,66,68,70,72,74,76,78,80,82,84,86,88,90,92,94,96,98,100,102,104,106,108,110,112,114,116,118,120,122,124,126,-1,-1,-1,-1,-1,-1,-1,-1,-1,-1,-1,-1,-1,-1,-1,-1,-1,-1,-1,-1,-1,-1,-1,-1,-1,-1,-1,-1,-1,-1,-1,-1,-1,-1,-1,-1,-1,-1,-1,-1,-1,-1,-1,-1,-1,-1,-1,-1,-1,-1,-1,-1,-1,-1,-1,-1,-1,-1,-1,-1,-1,-1,-1,-1],"split_conditions":[3.9897717E1,6.1E1,1E0,3.5E1,1E0,3E0,1E0,1E0,3E0,7.0073724E-1,3E0,6.972468E-1,1E0,3E0,3E0,1E0,1E0,4.93763E0,1E0,1E0,1E0,1E0,6.972468E-1,5E0,1E0,1E0,6.8921965E-1,6.1E1,1E0,5E0,6.972468E-1,7.0073724E-1,4.93763E0,1E0,3E0,1E0,6.972468E-1,1E0,8.030073E0,3E0,1E0,1E0,1.4E1,9.602724E0,1.0177542E1,1E0,6E0,1.03E2,1E0,1E0,1E0,7.12384E-1,7.0073724E-1,4E0,1E0,3.5E1,1E0,8.696951E-2,7.1625215E-1,9.1E1,7.0840406E-1,5E0,6.1E1,2.3876E-2,9.090364E-2,6.1988194E-2,-3.858789E-2,1.1792847E-1,9.1440655E-2,4.445764E-2,9.7607404E-2,6.305732E-2,-2.415022E-2,-8.567642E-2,-2.1769537E-2,6.672871E-2,-1.5133119E-3,2.719977E-2,-6.2225528E-2,6.961221E-2,1.1252095E-1,1.766166E-2,1.02314785E-1,1.1996962E-1,8.803446E-2,7.37546E-2,1.3099618E-1,3.0838294E-2,-5.80347E-2,1.0863709E-1,3.271721E-2,1.9304695E-2,9.708649E-2,1.7151569E-1,9.063424E-2,-1.1872595E-1,-3.2771364E-2,-1.21243075E-1,-9.604393E-2,-8.864137E-3,-9.094423E-2,-2.2412867E-3,-1.1847196E-1,-1.0090896E-2,8.7721564E-2,-8.507306E-2,-8.771062E-3,-6.807213E-2,-1.2219294E-1,-1.0554806E-1,-5.5704582E-3,3.8957562E-2,-4.8479043E-2,1.0053035E-1,3.0608205E-2,5.145331E-2,1.0632014E-1,3.0618856E-2,1.0902732E-1,-7.868745E-2,4.8225645E-2,-1.0807598E-1,-5.3563457E-2,5.853612E-2,-4.8772145E-2,1.90729E-2,1.0718089E-1],"split_indices":[2,0,14,0,21,1,21,14,1,4,1,4,21,1,1,21,21,2,21,22,16,14,4,11,21,22,4,0,22,11,4,4,2,22,1,21,4,22,2,1,14,22,6,2,2,14,11,6,16,22,11,4,4,11,16,0,22,4,4,6,4,11,0,0,0,0,0,0,0,0,0,0,0,0,0,0,0,0,0,0,0,0,0,0,0,0,0,0,0,0,0,0,0,0,0,0,0,0,0,0,0,0,0,0,0,0,0,0,0,0,0,0,0,0,0,0,0,0,0,0,0,0,0,0,0,0,0],"split_type":[0,0,0,0,0,0,0,0,0,0,0,0,0,0,0,0,0,0,0,0,0,0,0,0,0,0,0,0,0,0,0,0,0,0,0,0,0,0,0,0,0,0,0,0,0,0,0,0,0,0,0,0,0,0,0,0,0,0,0,0,0,0,0,0,0,0,0,0,0,0,0,0,0,0,0,0,0,0,0,0,0,0,0,0,0,0,0,0,0,0,0,0,0,0,0,0,0,0,0,0,0,0,0,0,0,0,0,0,0,0,0,0,0,0,0,0,0,0,0,0,0,0,0,0,0,0,0],"sum_hessian":[1.9646275E4,1.5578685E4,4.0675908E3,1.0911726E4,4.6669595E3,3.0425144E3,1.0250764E3,4.336225E3,6.5755E3,3.1118625E3,1.5550968E3,1.7305415E3,1.3119729E3,6.66685E2,3.5839148E2,3.3875198E3,9.4870544E2,3.9490198E3,2.6264802E3,2.2357476E3,8.7611505E2,9.1941956E2,6.3567725E2,1.1291621E3,6.0137946E2,9.4820935E2,3.6376352E2,4.2898898E2,2.37696E2,2.0566586E2,1.5272562E2,2.3780742E3,1.0094455E3,5.5067596E2,3.980295E2,4.5759137E2,3.4914285E3,1.7477915E3,8.7868866E2,1.0767654E3,1.1589822E3,6.542242E2,2.2189082E2,6.582965E2,2.6112305E2,4.3432562E2,2.0135162E2,1.2763922E2,1.0015228E3,4.4452698E2,1.5685248E2,4.7829785E2,4.6991147E2,2.2442206E2,1.3934148E2,3.0480115E2,1.2418783E2,1.00267334E2,1.3742867E2,2.2936975E1,1.8272888E2,1.0486049E2,4.7865124E1,1.6945449E3,6.835293E2,1.5161214E2,8.578333E2,2.3563597E2,3.1504E2,2.5251505E2,1.4551445E2,2.7554413E2,1.8204726E2,2.3799224E3,1.1115062E3,8.287916E2,9.189998E2,1.6948454E2,7.092041E2,6.9248914E2,3.842762E2,9.290247E2,2.2995738E2,3.030206E2,3.512036E2,7.8314934E0,2.1405933E2,2.020036E2,4.562929E2,4.821351E1,2.1290953E2,3.4100226E2,9.332339E1,2.6270723E1,1.750809E2,4.2040375E1,8.559885E1,6.2169916E2,3.7982367E2,2.3704607E2,2.0748093E2,3.117603E0,1.5373486E2,3.4824634E2,1.3005153E2,3.1561664E2,1.5429482E2,1.7909071E1,2.0651299E2,8.869461E1,5.0646866E1,1.18518265E2,1.8628288E2,5.3927402E1,7.026042E1,7.5939064E0,9.267343E1,1.06029396E2,3.1399261E1,6.8634663E0,1.607351E1,1.20915855E2,6.1813034E1,1.3271239E1,9.158925E1,3.4467804E1,1.3397322E1],"tree_param":{"num_deleted":"0","num_feature":"23","num_nodes":"127","size_leaf_vector":"1"}},{"base_weights":[1.8306968E-3,5.363991E-1,-1.1982711E-1,7.481031E-1,1.8759887E-1,-2.9114348E-1,2.6078835E-1,9.95737E-1,5.495678E-1,4.929909E-2,7.991955E-1,-4.4272912E-1,1.917887E-1,4.6235415E-1,-1.4701766E-1,8.98891E-1,1.1564354E-1,8.465569E-1,3.0146766E-1,-1.6720778E-1,4.969171E-1,6.462059E-1,1.0926726E0,-6.4073324E-1,-8.5846126E-2,4.451508E-1,-1.8889031E-1,7.62276E-1,1.9377609E-1,-3.4633446E-1,4.055478E-1,1.0897583E0,7.4190855E-1,7.280656E-1,1.1672348E0,9.162429E-2,8.437594E-1,-4.1698644E-1,2.3941658E-1,3.1083518E-1,9.5708007E-1,4.2639372E-1,9.7153395E-1,1.1027122E0,3.9545327E-2,8.2663976E-2,-7.235878E-1,1.22606695E-1,-6.175192E-1,8.0929184E-1,1.7275375E-1,6.5343004E-1,-2.8713167E-1,9.1699725E-1,3.7999547E-1,3.4980066E-2,8.9821166E-1,-6.348234E-1,9.3013406E-2,1.7072073E-1,8.3411455E-1,1.1010408E-1,5.1868934E-2,5.893156E-2,1.2290653E-1,5.4518607E-2,1.0670449E-1,1.173133E-1,4.9259987E-2,-9.784098E-3,9.193323E-2,9.6757405E-2,4.738344E-2,-6.5247096E-2,6.4651007E-3,2.3214899E-3,7.625441E-2,6.808444E-2,-3.9764095E-4,-3.953836E-2,9.923109E-2,2.2153823E-2,9.826315E-2,4.481741E-2,1.0594206E-1,4.4614505E-2,1.11316636E-1,-7.947567E-2,4.7820266E-2,-9.4081394E-2,-4.421183E-2,4.9477093E-2,-2.2075122E-2,-9.117624E-2,-2.7709693E-2,9.807759E-2,4.3030437E-2,-9.439587E-3,7.083222E-2,-5.0140675E-2,1.1793687E-1,-5.281307E-2,8.44082E-3,7.737794E-2,1.1819982E-1,1.1377485E-2,8.5230075E-2,-2.4722727E-2,6.0058963E-2,1.0586082E-1,4.705621E-2,-9.5398985E-2,-3.0622853E-2,-2.049015E-2,7.2091065E-2,-2.8976023E-3,7.068925E-2,1.0272496E-1,4.049644E-2],"categories":[],"categories_nodes":[],"categories_segments":[],"categories_sizes":[],"default_left":[0,0,0,0,0,0,0,0,0,0,0,0,0,0,0,0,0,0,0,0,0,0,0,0,0,0,0,0,0,0,0,0,0,0,0,0,0,0,0,0,0,0,0,0,0,0,0,0,0,0,0,0,0,0,0,0,0,0,0,0,0,0,0,0,0,0,0,0,0,0,0,0,0,0,0,0,0,0,0,0,0,0,0,0,0,0,0,0,0,0,0,0,0,0,0,0,0,0,0,0,0,0,0,0,0,0,0,0,0,0,0,0,0,0,0,0,0,0,0],"id":13,"left_children":[1,3,5,7,9,11,13,15,17,19,21,23,25,27,29,31,-1,33,35,37,39,41,43,45,47,49,51,53,55,57,59,61,63,65,67,69,71,73,75,77,79,81,83,85,-1,87,89,91,93,95,97,99,101,103,105,107,109,111,113,115,117,-1,-1,-1,-1,-1,-1,-1,-1,-1,-1,-1,-1,-1,-1,-1,-1,-1,-1,-1,-1,-1,-1,-1,-1,-1,-1,-1,-1,-1,-1,-1,-1,-1,-1,-1,-1,-1,-1,-1,-1,-1,-1,-1,-1,-1,-1,-1,-1,-1,-1,-1,-1,-1,-1,-1,-1,-1,-1],"loss_changes":[1.2522598E3,2.6345837E2,1.02286597E3,1.0865161E2,1.14117935E2,7.919758E2,4.0031876E2,1.4322876E1,9.0743164E1,1.0686079E2,1.0466629E1,5.817528E2,2.4940182E2,2.6236102E2,1.7761188E2,1.7780823E1,0E0,2.0488129E1,7.6670944E1,7.5599525E1,3.0480713E1,1.1457939E1,1.5065765E-1,3.1744092E2,3.258165E2,1.5383493E2,8.572258E1,9.069336E1,1.9243823E2,1.5022453E2,4.2893364E1,1.2191162E0,2.481456E1,2.50029E1,1.8417358E-2,7.652364E1,8.154327E0,5.2311386E1,3.2046623E1,2.99882E1,5.3009644E0,1.1274998E1,2.5683212E0,6.6719055E-2,0E0,1.8954736E2,2.9008447E2,2.7001492E2,8.268149E1,4.2732544E1,1.27303925E2,6.635121E1,8.299308E1,4.0645874E1,5.5880966E1,2.2443446E2,2.1209885E1,7.472531E1,8.815411E1,2.9734203E1,1.2108803E1,0E0,0E0,0E0,0E0,0E0,0E0,0E0,0E0,0E0,0E0,0E0,0E0,0E0,0E0,0E0,0E0,0E0,0E0,0E0,0E0,0E0,0E0,0E0,0E0,0E0,0E0,0E0,0E0,0E0,0E0,0E0,0E0,0E0,0E0,0E0,0E0,0E0,0E0,0E0,0E0,0E0,0E0,0E0,0E0,0E0,0E0,0E0,0E0,0E0,0E0,0E0,0E0,0E0,0E0,0E0,0E0,0E0,0E0],"parents":[2147483647,0,0,1,1,2,2,3,3,4,4,5,5,6,6,7,7,8,8,9,9,10,10,11,11,12,12,13,13,14,14,15,15,17,17,18,18,19,19,20,20,21,21,22,22,23,23,24,24,25,25,26,26,27,27,28,28,29,29,30,30,31,31,32,32,33,33,34,34,35,35,36,36,37,37,38,38,39,39,40,40,41,41,42,42,43,43,45,45,46,46,47,47,48,48,49,49,50,50,51,51,52,52,53,53,54,54,55,55,56,56,57,57,58,58,59,59,60,60],"right_children":[2,4,6,8,10,12,14,16,18,20,22,24,26,28,30,32,-1,34,36,38,40,42,44,46,48,50,52,54,56,58,60,62,64,66,68,70,72,74,76,78,80,82,84,86,-1,88,90,92,94,96,98,100,102,104,106,108,110,112,114,116,118,-1,-1,-1,-1,-1,-1,-1,-1,-1,-1,-1,-1,-1,-1,